{"format":"puyoai-policy-web-v1","name":"Compact Fast","actionKeys":["UP:0","DOWN:0","UP:1","DOWN:1","UP:2","DOWN:2","UP:3","DOWN:3","UP:4","DOWN:4","UP:5","DOWN:5","RIGHT:0","RIGHT:1","RIGHT:2","RIGHT:3","RIGHT:4","LEFT:1","LEFT:2","LEFT:3","LEFT:4","LEFT:5"],"maxNextPairs":5,"objective":"learned_policy_mlp","modelConfig":{"input_dim":470,"hidden_dim":192,"dropout":0.14,"output_dim":22},"metadata":{"train_records":112505,"val_records":12499,"slim_train_records":98745,"slim_val_records":10971,"focus_train_records":13760,"focus_val_records":1528,"max_next_pairs":5,"focus_weight":1.8,"teacher_temperature":18.0,"distill_weight":0.15,"best_val_top1":0.1351308104648372,"history":[{"epoch":1,"train_loss":3.717738003069801,"val_loss":3.6813668217389277,"val_top1":0.10432834626770142,"val_top3":0.2612208976718137,"val_focus_top1":0.09424083769633508},{"epoch":2,"train_loss":3.6654061541017557,"val_loss":3.649866417375829,"val_top1":0.10408832706616529,"val_top3":0.26138091047283785,"val_focus_top1":0.09947643979057591},{"epoch":3,"train_loss":3.5330466593516086,"val_loss":3.4967389548146275,"val_top1":0.10512841027282183,"val_top3":0.2791423313865109,"val_focus_top1":0.10863874345549739},{"epoch":4,"train_loss":3.46288525674731,"val_loss":3.482841377706945,"val_top1":0.1128890311224898,"val_top3":0.2911432914633171,"val_focus_top1":0.12041884816753927},{"epoch":5,"train_loss":3.425707634016332,"val_loss":3.4672837398540346,"val_top1":0.1146491719337547,"val_top3":0.2957836626930154,"val_focus_top1":0.12892670157068062},{"epoch":6,"train_loss":3.3802376115127677,"val_loss":3.4494040515749194,"val_top1":0.11872949835986879,"val_top3":0.3031442515401232,"val_focus_top1":0.13678010471204188},{"epoch":7,"train_loss":3.333725891949934,"val_loss":3.446550356291687,"val_top1":0.12128970317625411,"val_top3":0.30698455876470115,"val_focus_top1":0.1505235602094241},{"epoch":8,"train_loss":3.2853416390972323,"val_loss":3.421266835692864,"val_top1":0.1292903432274582,"val_top3":0.3134650772061765,"val_focus_top1":0.16753926701570682},{"epoch":9,"train_loss":3.240072073812914,"val_loss":3.4112513234914994,"val_top1":0.12745019601568125,"val_top3":0.3200256020481638,"val_focus_top1":0.17866492146596857},{"epoch":10,"train_loss":3.199630034469476,"val_loss":3.4093046364989106,"val_top1":0.1351308104648372,"val_top3":0.32442595407632613,"val_focus_top1":0.18586387434554974}],"action_keys":["UP:0","DOWN:0","UP:1","DOWN:1","UP:2","DOWN:2","UP:3","DOWN:3","UP:4","DOWN:4","UP:5","DOWN:5","RIGHT:0","RIGHT:1","RIGHT:2","RIGHT:3","RIGHT:4","LEFT:1","LEFT:2","LEFT:3","LEFT:4","LEFT:5"]},"layers":[{"index":0,"inputDim":470,"outputDim":192,"activation":"gelu","weights":[-0.04731,0.176415,0.028633,-0.196569,-0.044682,-0.007314,0.021139,0.251011,-0.048115,0.148088,-0.048948,0.168418,-0.01577,-0.001854,0.023875,-0.026683,-0.371706,0.097098,0.073891,-0.173501,0.023219,0.092215,0.027318,0.309978,0.093497,-0.024613,-0.008516,0.020983,-0.00455,-0.024581,-0.053137,-0.114247,0.08907,-0.006802,0.221325,-0.047607,0.144045,0.009197,0.115085,0.131739,0.032228,-0.22228,-0.007801,0.071563,0.148066,0.037887,-0.234298,-0.122746,-0.177011,0.308333,0.002412,0.063117,0.057611,0.095036,0.06011,-0.004309,0.053579,0.013237,0.155594,-0.287749,-0.036465,0.079509,-0.13141,-0.276577,-0.164465,-0.130832,0.089892,0.492168,0.273511,0.454958,-0.009902,-0.041617,-0.116181,0.208607,0.080029,0.036496,-0.04761,-0.324199,-0.060197,-0.179796,0.021314,0.122542,-0.122133,0.176724,-0.141744,0.009787,-0.33664,0.102722,0.175803,0.384117,0.029469,-0.210095,-0.128388,-0.017787,-0.079149,-0.074694,0.132959,0.037646,0.068092,0.204063,0.02936,-0.140877,0.08461,-0.049542,-0.171581,-0.031176,-0.028083,0.265643,-0.086068,-0.178179,0.041032,-0.064683,-0.149491,-0.127594,0.052336,0.00974,0.21074,-0.116672,0.414512,0.222795,0.004815,-0.006588,-0.239882,0.005077,0.078783,-0.029839,0.082439,0.070068,0.113689,-0.05572,0.042125,-0.035904,0.023338,0.016005,-0.028662,0.039972,-0.053769,-0.021347,-0.136233,0.055685,0.029192,0.089631,0.027136,-0.038487,-0.106527,-0.016058,0.150963,0.04991,-0.276666,0.175186,0.015817,-0.069294,-0.152291,-0.099627,-0.1942,-0.077544,-0.050816,0.223787,0.035608,0.174614,0.016176,0.083871,-0.053957,-0.166369,-0.011798,0.0227,-0.03747,0.259365,-0.023819,-0.045798,-0.032379,0.063421,0.342606,0.326762,-0.088614,-0.015719,0.048047,0.365454,0.080041,-0.038466,-0.022815,-0.094462,0.028172,0.07212,-0.083722,0.002747,0.1519,0.010191,-0.104711,0.193588,0.024453,-0.11679,0.038179,0.015173,0.14737,-0.048903,0.020197,-0.029419,0.033481,0.122287,-0.063726,-0.161916,0.195595,0.185342,0.069924,0.001079,-0.003586,0.082643,0.166785,-0.056565,0.014422,-0.031768,-0.264118,0.265865,-0.300349,-0.136432,0.111784,0.034917,0.181116,0.084625,0.018611,-0.044718,0.129478,-0.199064,0.089743,0.043924,-0.191194,0.123513,-0.162178,0.120432,0.006873,0.201093,0.004269,-0.175657,-0.068764,0.003348,0.117183,-0.174372,0.119427,0.202452,0.056529,0.049174,-0.191018,0.000761,-0.141604,-0.098097,0.05836,0.196011,0.042646,-0.020915,0.022282,-0.07189,0.018528,0.026753,-0.073272,0.059747,0.050924,-0.025232,-0.043689,-0.037949,0.024482,0.017739,-0.154353,0.059986,-0.163668,-0.004422,-0.107851,-0.187177,-0.074804,0.264115,0.042805,0.07245,-0.268114,0.031936,0.052409,-0.104432,0.03324,-0.037783,0.156775,0.068911,-0.031952,0.086005,-0.084308,-0.026139,-0.041132,0.019299,-0.032726,-0.103026,0.116838,-0.084156,-0.005574,-0.017167,-0.073196,0.231617,-0.124749,0.010664,-0.065605,-0.175968,0.065407,0.114118,0.141734,-0.268375,-0.012515,0.070251,-0.26689,-0.250892,0.163078,0.091149,0.001503,0.059114,-0.001831,-0.027087,-0.021571,-0.00892,-0.051155,0.15099,-0.060203,-0.112863,0.012133,-0.171838,-0.065509,-0.232295,0.138514,0.122803,-0.052544,0.04816,-0.143108,0.017554,0.060931,-0.070198,0.11264,0.08618,-0.074235,-0.029655,-0.266057,-0.115365,-0.172148,0.068367,0.289876,0.029033,0.087945,0.083624,-0.171176,-0.053255,-0.048508,0.179371,-0.01343,0.030777,-0.175722,0.00818,-0.012604,0.011172,0.026963,-0.155973,-0.004364,0.068123,0.000536,0.043483,-0.057998,-0.262569,0.082134,-0.033007,-0.076406,0.005799,-0.083145,-0.095141,0.033291,-0.120969,0.059603,0.099366,0.148945,-0.07826,-0.023962,-0.034895,0.012426,0.116378,0.01948,-0.06294,0.005087,-0.012688,-0.079192,-0.104885,0.216089,-0.067297,0.019127,0.081193,-0.02085,-0.057619,0.126643,-0.236524,0.250581,0.069612,-0.125611,-0.222362,-0.015551,-0.297569,0.051386,0.029726,-0.056945,0.146543,0.173945,0.038023,-0.073206,0.047121,-0.147461,0.186096,-0.17268,-0.051402,0.062938,0.014485,0.135725,-0.112142,-0.073231,0.110114,-0.112921,0.115166,-0.090762,0.026021,0.156429,-0.476817,0.065535,-0.086237,-0.006263,0.097813,-0.130712,-0.082052,0.015408,0.114783,-0.098464,0.067818,-0.010447,-0.027152,-0.065228,0.142344,0.04207,-0.049627,0.047318,0.022377,-0.055431,-0.072759,0.201385,-0.165043,-0.050628,-0.041278,-0.293998,0.083951,0.155125,0.0093,0.074868,-0.12023,0.100042,-0.04533,0.095421,0.059438,-0.166644,-0.060527,-0.132721,-0.038866,0.000374,0.145013,-0.054791,-0.048864,0.130134,-0.003464,0.011194,0.021762,-0.063897,0.019476,-0.029973,-0.035336,0.00809,-0.064396,0.005592,0.006273,1.8e-05,0.009402,0.075705,0.010211,0.113803,-0.097486,-0.030873,0.020202,0.118781,0.027176,0.221015,0.00802,-0.019441,0.089387,0.104716,-0.07154,-0.003281,-0.023768,-0.195051,0.027597,0.266969,-0.006491,0.026313,0.004861,0.025733,0.016003,0.003263,-0.125681,0.148576,-0.341947,0.129165,-0.000929,-0.092094,0.001793,0.237002,0.129888,-0.039064,0.252701,-0.078842,0.190444,0.235002,0.003369,0.036792,-0.044954,-0.238724,-0.046089,0.011954,0.343105,0.071527,-0.307349,0.008182,0.018925,0.057341,0.017634,-0.019445,-0.022876,-0.027027,-0.329687,-0.001117,0.262136,0.144328,-0.035625,0.157962,0.084305,-0.08898,0.21017,-0.064133,0.150828,0.031672,0.236001,0.117271,-0.035009,-0.121596,-0.133016,0.021093,-0.166238,-0.034089,-0.075427,0.135299,0.324789,-0.006188,0.025309,-0.021757,0.194134,-0.018978,0.032774,0.023727,-0.095988,-0.231213,0.2143,-0.320424,-0.012454,0.286999,0.010666,0.249578,0.107197,-0.058813,-0.113864,0.271533,0.102198,0.21734,-0.040215,-0.09252,0.071018,-0.0757,0.151178,-0.056315,-0.242669,0.332179,0.329135,0.101566,-0.048966,0.001496,-0.158147,0.166217,0.107723,-0.026215,-0.043118,-0.135336,-0.050965,0.348282,-0.076645,0.157412,0.254499,0.035469,-0.069148,0.01438,0.088999,-0.144598,-0.175399,0.190964,0.024925,-0.021802,-0.372362,-0.021345,0.326209,-0.029315,0.180046,-0.030051,0.28478,0.246991,-0.021368,0.20743,0.008285,-0.091731,0.160175,-0.002015,-0.028367,-0.288995,-0.213437,-0.002899,0.037981,0.003552,-0.004291,-0.053728,-0.25481,-0.016938,0.16432,-0.011414,0.07144,-0.090809,-0.012155,0.016056,-0.101101,-0.036244,0.129534,0.005843,0.129285,-0.056874,0.201675,-0.088526,-0.068825,-0.013003,0.099289,-0.268918,0.225764,0.01167,-0.114948,-0.027853,0.056443,-0.1351,-0.011007,-0.184851,-0.061208,0.335482,-0.033213,-0.018009,-0.07578,-0.012686,0.284343,0.004528,-0.014906,0.209997,0.113224,-0.141316,-0.0034,0.013166,-0.12322,0.415368,-0.040541,-0.237029,-0.054813,0.090162,0.07457,-0.120735,-0.116084,0.032965,-0.05649,-0.176247,-0.109841,-0.220967,0.039808,0.141299,-0.198992,-0.250657,-0.098485,-0.051819,-0.026255,0.219517,-0.178218,0.185684,0.007889,-0.121894,0.024424,-0.179851,0.172238,-0.012603,-0.213553,-0.110462,0.046661,-0.055876,-0.04328,0.095526,-0.249208,0.197055,-0.090408,0.063638,-0.204771,0.034304,-0.243546,0.062289,0.120727,-0.245608,-0.206999,-0.053869,-0.120671,-0.125112,0.09029,0.204737,0.143425,-0.00497,0.028722,-0.087691,-0.254763,0.019326,-0.038052,-0.003309,0.043001,0.130486,0.002293,-0.061074,-0.038267,0.139305,-0.277939,-0.065214,0.21806,-0.008879,0.153727,-0.074315,-0.06468,-0.092977,0.095183,0.067535,-0.423631,-0.001998,0.021384,-0.036004,-0.239489,0.201226,0.089488,-0.004127,0.026096,-0.244444,-0.181028,0.047601,0.127658,-0.053112,0.227495,-0.17647,-0.205103,0.086333,-0.011749,-0.061097,0.027545,0.112228,-0.227815,-0.045851,0.086831,0.326964,-0.322767,-0.037426,0.005804,0.015615,-0.024569,-0.20617,0.075066,-0.062744,0.11004,0.051566,0.093368,-0.07264,0.120544,-0.330969,-0.052555,0.000843,0.004097,-0.01895,-0.407826,-0.178492,0.272331,0.183805,0.031791,-0.092602,-0.140651,-0.155174,-0.015568,-0.166238,-0.092276,0.17332,0.12144,0.090451,0.028084,0.050267,-0.143061,-0.126482,0.049163,-0.01704,-0.061962,-0.165953,0.112125,0.066925,0.200195,-0.309453,-0.243627,0.014058,-0.028466,0.036493,-0.088115,-0.102176,0.019523,0.019413,0.095491,-0.16851,-0.087589,-0.144069,0.064602,0.087726,-0.184701,-0.087513,0.108277,-0.143631,0.037995,-0.009824,-0.080326,0.09366,-0.069576,-0.138094,0.039206,-0.073721,0.053877,0.034771,0.182029,-0.207554,-0.265971,-0.110254,0.173438,-0.077835,-0.074942,-0.088955,0.15143,0.246444,0.099008,-0.136906,-0.306036,-0.110071,0.114085,0.003503,0.0152,0.223848,-0.260049,-0.103736,0.175993,0.069818,-0.045428,-0.007388,-0.176501,-0.167354,0.056425,0.204253,0.013847,-0.126044,0.377965,-0.16504,-0.275156,-0.050616,0.080258,-0.039656,-0.018317,-0.102896,0.097091,0.011106,0.234418,-0.276638,-0.380493,-0.03504,0.172383,0.15393,0.1847,-0.205595,-0.185787,0.082771,0.258471,-0.021198,-0.290423,-0.14728,0.038067,0.073593,0.04058,-0.01907,0.027209,0.02818,-0.093913,0.08167,-0.077441,-0.025569,-0.056993,0.044552,-0.027675,0.015444,-0.025293,-0.005112,-0.010365,-0.088954,0.061784,0.131547,-0.051626,-0.096629,-0.015337,-0.031196,-0.060838,-0.068747,0.141335,0.128683,-0.139439,-0.078784,0.051149,0.038644,0.00499,0.038019,-0.050206,-0.008469,-0.025156,-0.066133,0.067286,0.002279,0.019331,-0.000386,-0.089959,0.018862,-0.192647,0.026976,0.009544,0.34246,0.351824,0.009686,-0.118291,-0.017041,-0.084335,-0.2368,-0.024072,0.171739,-0.008868,0.159402,0.240248,0.117738,0.084098,-0.025074,-0.019985,-0.047162,-0.078778,0.067609,-0.014394,0.004741,-0.029223,0.009374,-0.026225,0.026728,-0.252017,0.232128,-0.168989,-0.178032,0.031956,0.007445,-0.247546,-0.151862,0.170938,0.02305,0.109401,-0.016876,0.009378,-0.349237,-0.003842,0.270291,-0.074575,-0.148987,-0.088506,0.042844,-0.194207,0.044379,0.042365,-0.092529,0.042345,-0.228055,-0.017257,0.258075,-0.03252,-0.025355,0.15569,-0.266197,0.385395,0.143932,0.023826,-0.04329,-0.103061,-0.003727,-0.08195,-0.004643,0.09978,0.277381,0.262685,-0.193272,-0.0048,-0.03151,-0.024038,-0.0275,-0.031547,-0.005637,0.014326,0.119761,0.181652,-0.152689,-0.01914,-0.102497,-0.119951,0.035055,0.012779,-0.006506,-0.02342,0.12968,-0.071588,0.011257,0.020676,0.006603,-0.175853,-0.226338,0.034575,-0.056783,0.192554,0.075207,-0.029819,0.098535,-0.019374,0.206398,0.269665,-0.149761,-0.161345,0.037351,0.225311,-0.153174,-0.043404,-0.140804,0.014454,0.060259,0.079869,0.261231,0.058254,0.002878,-0.406265,0.284935,0.078894,-0.155757,-0.069718,0.260889,-0.084562,0.09,0.000605,0.055958,-0.184677,-0.089794,-0.080581,0.145909,-0.000874,-0.178648,-0.046273,0.22613,-0.293722,-0.017243,-0.159432,-0.151825,-0.128971,-0.039712,-0.000566,-0.025783,0.035221,-0.129831,0.199098,-0.049188,-0.152857,-0.133091,0.24524,-0.016463,-0.008335,0.103304,-0.033126,0.027371,0.105365,-0.040599,-0.270346,-0.031998,0.266739,0.065816,0.017043,-0.00251,-0.078182,-0.278032,0.092172,0.026151,-0.000624,-0.210284,-0.269395,0.388746,-0.028372,0.137678,-0.045577,0.256981,-0.160904,0.046451,0.013032,0.15145,-0.12043,-0.086832,-0.076996,-0.060841,0.176891,-0.045119,0.093338,0.00189,0.103152,0.09017,-0.035794,0.007948,-0.01561,0.040824,-0.008675,-0.233998,0.11115,0.005608,-0.204065,0.201817,-0.23457,0.345304,-0.036711,0.311782,-0.070363,-0.488787,0.016563,-0.057804,-0.093408,0.256631,0.026012,-0.127521,0.034737,0.162204,-0.020007,-0.439345,-0.084618,0.026997,-0.122536,-0.084778,0.24926,-0.000229,0.054315,-0.197469,-0.01675,0.086168,-0.062286,-0.058507,0.165738,-0.163531,-0.035244,0.111116,0.03889,-0.138839,-0.272823,-0.213065,0.194117,-0.094607,0.17653,-0.022908,-0.159178,0.281341,0.027644,-0.118288,0.024017,0.007512,-0.14906,-0.202274,0.131473,0.143916,-0.09172,0.319068,0.025825,-0.131304,0.112466,-0.277745,0.041252,0.073629,-0.097558,-0.204847,-0.007011,0.043039,0.011805,-0.406626,0.018569,-0.3803,0.040544,0.056859,0.012191,0.067716,0.013312,-0.233794,0.080282,-0.198625,0.119002,-0.161059,0.073383,-0.108731,0.065849,0.044305,0.159419,0.00747,0.135073,0.060839,-0.083064,-0.143723,-0.217891,0.092082,-0.201608,-0.210153,-0.19287,0.161237,0.012134,0.119893,-0.173291,-0.313773,0.115058,-0.000757,-0.135395,0.07066,0.160919,-0.133825,0.110721,-0.079251,-0.001032,-0.019656,-0.06326,-0.177857,-0.094463,-0.110282,0.241675,0.152876,0.195457,-0.011079,-0.317725,0.112567,-0.327313,0.115653,-0.073937,-0.366003,0.026309,-0.175387,-0.017376,0.189756,-0.082253,-0.212288,0.085167,0.02788,-0.049057,0.000785,0.079271,-0.152742,0.047053,0.050118,-0.059669,-0.168817,-0.033365,0.031384,0.003301,0.106465,-0.199458,0.144634,0.108762,0.123172,-0.191934,-0.116651,0.040631,0.034914,-0.105464,0.265595,-0.160839,-0.07764,-0.037363,-0.019645,0.151826,0.063265,-0.124241,-0.067542,0.156467,0.083357,-0.032572,-0.090559,-0.022283,0.210279,0.025042,-0.193676,-0.008128,-0.159316,0.064737,0.072405,0.041324,-0.02226,0.181748,-0.048177,-0.120032,-0.104972,0.058409,-0.053006,-0.02349,0.22257,-0.141318,0.126802,-0.071326,0.11068,-0.114731,0.278937,-0.11359,-0.243915,0.073254,0.011823,0.227057,-0.16471,0.136426,-0.16884,-0.035389,0.06607,0.038138,-0.054913,-0.011899,0.001743,-0.10644,0.131481,0.230272,0.01914,-0.04101,-0.005749,-0.09081,-0.029239,0.031506,0.152305,-0.079314,-0.013052,-0.148061,0.005223,-0.029742,0.118304,-0.008141,-0.119607,0.108141,-0.273959,0.20914,0.064122,-0.079751,0.202435,-0.14683,-0.077137,0.092333,0.065443,-0.091436,0.047126,-0.037438,-0.005394,-0.10932,-0.07762,0.151791,-0.146841,-0.006297,0.019012,-0.07472,-0.092591,0.016224,-0.056549,-0.029524,0.124177,-0.071485,0.085868,-0.181985,0.128934,-0.143221,0.131749,-0.148818,-0.140211,0.081664,-0.017771,0.124665,-0.113676,-0.084216,-0.019181,-0.152964,0.01906,0.079741,-0.336569,0.25751,0.088068,-0.0818,-0.039736,0.021048,-0.037274,0.124363,-0.04593,0.002531,0.039984,-0.037011,0.124359,-0.186021,0.035019,0.459564,-0.015394,-0.21254,0.063791,-0.044451,-0.051119,-0.041774,0.208533,0.063318,-0.08349,0.038984,-0.038878,0.093625,-0.021512,0.185971,-0.024674,0.027303,0.034769,-0.038281,0.024501,0.011008,0.018212,0.010671,0.163016,0.03621,0.090361,-0.007967,0.021716,0.249738,-0.018216,-0.073763,-0.023094,-0.203443,0.213159,-0.199694,-0.189662,0.025738,-0.124088,-0.120953,-0.037094,-0.067766,-0.037864,-0.108774,-0.090467,-0.15662,0.062263,0.008896,0.590413,0.029365,-0.202547,-0.24894,0.022395,0.018626,-0.10393,0.266152,-0.108191,-0.015762,0.211478,0.300496,-0.161966,0.122295,0.027329,-0.099712,0.030208,-0.247409,-0.198397,0.014563,0.191083,0.279798,-0.145994,0.096672,-0.03228,-0.205554,-0.155459,-0.05598,-0.065706,0.022057,0.16155,-0.056252,0.086836,0.381013,0.0109,-0.005033,0.051617,0.056489,-0.075944,0.017492,0.007278,-0.087622,0.207219,0.226842,0.026008,0.085397,-0.241738,-0.125951,-0.089544,0.041869,0.099082,0.016186,-0.22204,-0.00138,-0.011473,-0.407053,0.003099,0.021674,-0.220314,0.018385,0.073547,0.012512,-0.015407,0.108076,-0.035912,-0.193558,0.078661,-0.12302,0.102735,-0.02768,0.250966,-0.089519,0.098237,0.234936,0.022514,-0.055516,0.235639,-0.008652,-0.211196,0.001216,0.240442,0.017627,0.080025,-0.292852,-0.015498,0.103469,-0.199286,-0.397197,0.256243,-0.006455,0.163579,-0.012299,-0.059027,-0.088934,0.010636,-0.209925,-0.136354,-0.10795,-0.143338,-0.037573,0.293819,-0.172077,-0.041074,0.048029,0.056177,0.066825,0.083796,-0.220944,-0.041452,-0.067778,0.061187,0.367861,-0.115323,0.143198,0.026635,-0.033783,-0.183332,-0.242335,-0.044745,-0.063255,0.161436,0.333446,-0.285004,0.130146,0.038373,-0.25046,-0.126024,-0.193476,-0.310603,-0.040393,0.005401,0.054041,0.002964,-0.002726,0.070104,-0.249667,0.099333,-0.067595,-0.115686,-0.035464,-0.129491,0.152153,0.14975,-0.172841,0.07013,-0.120663,-0.440769,-0.031093,-0.084858,-0.081061,0.26901,0.066497,0.14834,0.020275,0.028492,0.080154,-0.100041,-0.042895,-0.095644,-0.025616,0.116078,0.09568,0.202658,-0.294185,0.131588,-0.216922,0.051442,-0.151721,-0.199385,0.048143,0.044078,-0.116165,-0.019042,0.052789,0.127833,0.059876,-0.355225,-0.234583,-0.151448,-0.034467,0.177744,-0.057001,0.27727,0.065543,0.113234,-0.165455,-0.268254,-0.246176,-0.055038,-0.032384,0.145165,0.021473,-0.025358,-0.090072,-0.034468,0.011378,0.152072,-0.043659,-0.170796,-0.058859,-0.13829,0.081578,0.034472,0.213682,-0.001905,-0.074497,0.086657,-0.258686,-0.043919,-0.044824,0.040956,0.150651,0.104123,0.028004,0.115696,-0.075716,-0.249173,-0.053298,-0.059251,-0.049002,0.011243,0.102237,-0.025391,0.005495,0.100076,0.052346,-0.052924,-0.164048,-0.054878,-0.109767,-0.022443,0.109818,0.130694,0.02571,0.058156,-0.118281,-0.115623,0.035857,-0.165117,-0.047376,0.008981,0.108286,-0.007519,0.061796,0.066219,-0.147325,0.107738,-0.154044,-0.061691,-0.055833,0.104053,0.154877,-0.06683,-0.013646,0.04197,0.123927,-0.055416,-0.10251,-0.202628,-0.021104,-0.038348,0.047306,0.227157,-0.163719,0.139093,-0.190185,-0.081886,-0.171424,-0.04385,-0.077361,-0.090946,0.073848,0.101796,0.173529,-0.06867,-0.003356,0.211766,-0.066426,-0.092614,-0.007489,0.096314,-0.001952,-0.035779,0.078267,0.135695,0.087039,-0.285741,0.042489,-0.031986,-0.150814,-0.073456,0.063747,0.089329,0.161352,0.184392,0.028987,-0.269109,0.057805,-0.158245,-0.229674,0.25622,-0.018182,0.064464,0.088657,0.135945,0.122254,-0.047294,-0.133914,-0.170289,-0.196198,0.270853,-0.144837,0.057907,-0.039404,0.196886,-0.018708,-0.096469,-0.182493,-0.006422,-0.042249,-0.046172,0.132427,0.037847,-0.061645,0.071215,0.105067,0.013577,-0.142557,0.010924,0.007031,0.04468,-0.166769,0.033433,0.205859,0.171924,-0.102928,-0.004888,-0.023377,-0.106179,-0.2816,-0.00132,-0.000429,0.024388,0.146261,0.15612,-0.071492,-0.084712,0.154696,-0.100832,-0.261536,0.009553,0.022367,0.143951,-0.18617,0.24729,0.122503,-0.032169,-0.218659,-0.165175,-0.241745,0.131273,0.108015,0.044463,-0.009643,-0.067674,-0.01273,0.131911,-0.073761,0.013141,-0.016972,-0.121785,0.094174,-0.042267,0.007584,-0.061565,0.051537,0.072298,-0.044894,-0.010734,-0.047449,0.155433,-0.042624,-0.052022,-0.10176,-0.002587,-0.008463,0.070742,-0.06741,-0.028545,-0.021756,0.009129,-0.026365,0.037564,-0.027869,0.014279,-0.102414,-0.046067,0.080654,-0.00912,-0.024945,-0.029704,-0.169374,0.149725,-0.09179,-0.022533,0.032706,0.118841,-0.046287,-0.121505,-0.011157,0.022729,0.041461,-0.033984,-0.019613,-0.013711,0.06642,0.009626,0.040057,0.042857,-0.002574,0.136088,-0.116801,0.003247,0.011908,-0.040088,0.020936,0.198653,0.011253,0.084226,-0.024371,0.109539,0.132753,0.090179,-0.141029,0.00861,0.328358,0.246697,0.015882,0.20593,-0.025455,-0.009958,-0.014639,-0.030226,0.022014,-0.036014,0.092725,-0.297552,-0.027308,0.05158,-0.010899,0.045753,0.104943,0.148351,-0.147296,0.021169,0.102465,-0.025602,0.156287,0.003772,-0.01568,-0.161427,-0.102629,-0.061361,-0.019685,0.018828,0.006516,0.187812,-0.00599,0.056799,0.011952,-0.296505,0.012864,-0.114427,0.072037,0.013036,-0.096325,-0.024132,0.030848,0.015801,0.02952,-0.246425,0.246739,-0.049041,0.144566,-0.017153,-0.002097,-0.14927,0.10085,0.258769,0.055613,0.112996,-0.298829,-0.116253,-0.104215,-0.102428,0.192998,0.307136,0.144369,0.516024,-0.002036,-0.099156,-0.079479,0.007434,-0.022925,-0.020731,-0.222177,-0.085662,0.077475,0.139248,0.008868,-0.057689,-0.077405,-0.236461,0.064999,-0.108266,-0.09779,0.182946,0.396954,0.138538,0.061555,0.043836,-0.06091,-0.09337,-0.192988,-0.073284,-0.010743,0.026729,0.121694,0.278835,-0.027261,0.202956,-0.010119,-0.112579,-0.02693,-0.004695,0.141509,0.00446,-0.039897,-0.153357,-0.024209,0.135831,0.02858,-0.112011,-0.142532,-0.028377,0.165155,0.088794,0.164453,-0.113431,-0.038072,0.080065,0.08112,0.077667,0.142816,-0.046029,0.110948,0.123306,0.068755,0.13697,-0.025359,0.040553,-0.018351,0.193426,0.083554,-0.027984,-0.05417,-0.011584,-0.022739,0.174971,-0.0671,0.210182,0.030027,0.008918,0.017268,-0.08398,-0.160452,0.18826,0.09788,0.165335,-0.060331,0.063771,0.030064,-0.056877,-0.020661,-0.201278,0.333462,0.23582,0.35721,-0.022976,-0.006927,0.029927,-0.117575,0.057807,-0.067424,-0.02848,0.121672,-0.193022,0.027814,-0.061869,-0.032566,0.012356,0.135733,0.132957,0.017083,-0.038482,-0.094024,0.205296,-0.076642,0.027879,0.0255,0.003541,-0.008104,0.038202,-0.189028,-0.136362,0.145117,0.347766,0.118349,0.115754,0.03385,-0.026928,-0.096802,-0.233854,-0.069054,0.014025,0.073782,-0.158429,-0.207602,-0.154131,-0.031228,-0.129041,-0.097837,0.142381,0.235456,-0.022649,-0.124861,0.067088,0.164854,-0.079697,0.015525,0.218874,-0.049348,-0.106519,-0.124486,-0.012208,0.028835,0.070112,-0.050849,0.18273,0.053557,-0.102293,-0.042735,-0.122173,0.009838,-0.017181,-0.098687,-0.019191,0.16144,-0.098271,-0.100206,-0.019351,0.152551,0.158312,-0.010708,0.048041,-0.093276,-0.076094,-0.067978,0.118514,0.000396,-0.077555,-0.014004,-0.098546,0.099949,-0.089049,0.015735,0.071162,0.13171,0.196817,0.041682,0.002617,0.096035,-0.071833,-0.061253,0.001062,-0.029617,-0.165264,0.098207,-0.028645,-0.004762,-0.024288,-0.09908,0.195233,-0.126107,0.19852,0.045433,-0.282545,0.020127,-0.029546,0.035869,-0.219421,0.10538,0.115336,-0.034239,-0.129476,0.287468,-0.021233,0.007063,-0.071024,-0.108512,0.098822,0.106941,0.072913,-0.103319,0.033284,-0.097133,0.050729,-0.010457,0.03601,-0.032783,0.02044,0.014919,-0.109967,0.112677,0.051055,-0.140429,0.061541,0.008253,-0.012,0.014995,0.074628,-0.029158,-0.030931,-0.159633,-0.096749,0.084753,0.087998,0.159958,0.001613,0.044855,0.005625,-0.007638,-0.018456,-0.237239,-0.016639,0.170728,0.010931,-0.147489,-0.007682,-0.071859,0.19101,0.126616,-0.023032,-0.147206,0.093403,-0.019097,-0.09031,-0.175741,0.193486,0.020719,0.116581,-0.149969,0.133824,-0.158812,-0.135468,0.157779,0.110659,0.014649,-0.11112,0.160978,-0.186257,-0.01672,0.117142,-0.401037,0.142436,-0.002154,-0.158837,-0.086853,-0.070967,0.148886,-0.053493,-0.057664,0.083956,-0.127194,0.017183,-0.077776,0.018194,-0.104497,0.136853,0.232635,0.03099,0.01405,-0.072342,-0.166356,-0.084647,0.022929,-0.129926,0.066356,0.082226,0.12,-0.046971,0.095913,-0.211854,-0.016774,0.002273,-0.141634,0.140972,0.004091,-0.042709,-0.142742,-0.118476,0.020297,0.022777,0.175769,-0.11533,-0.007069,0.174972,-0.094084,0.023332,0.22056,-0.167799,-0.093587,0.081934,0.000433,-0.193052,0.106793,0.008729,0.070892,-0.091287,0.243015,-0.078159,0.124899,-0.289582,-0.068488,-0.267639,-0.047812,-0.043454,0.243491,-0.061038,-0.083295,-0.067026,0.247561,-0.003379,0.202845,-0.389148,0.114276,0.01565,0.036569,-0.183459,0.125804,0.055183,-0.072363,-0.113747,0.083885,0.037632,0.09746,0.038822,-0.134581,-0.039271,0.004004,-0.030568,0.069817,0.023851,0.032985,-0.083827,-0.058328,0.098667,-0.031333,-0.031449,0.042017,0.003809,0.188911,0.115534,-0.230176,-0.023625,-0.006545,-0.097739,0.052749,0.135453,-0.176582,0.041366,-0.019959,-0.030152,0.011129,0.0272,0.094938,-0.03885,0.070773,0.011824,0.028756,0.038515,0.166882,0.200519,-0.206842,0.035451,-0.075179,-0.133926,-0.045501,0.043284,-0.033992,-0.135414,-0.104255,-0.075037,-0.134471,0.014087,0.140775,0.117058,0.073445,-0.115808,-0.023365,0.039558,-0.009786,0.018792,-0.021542,0.01518,0.175019,0.142107,-0.105289,0.024251,-0.045659,0.108679,-0.271925,0.00058,0.132613,-0.048324,0.011023,0.366916,0.062109,0.128004,0.035692,0.018128,-0.116937,0.001828,-0.04536,-0.006629,-0.117727,0.191507,-0.024812,0.155764,-0.049811,-0.03069,0.036884,-0.160491,0.146729,0.027919,0.040918,-0.008887,0.16524,-0.055913,-0.073644,0.161605,-0.090747,0.21626,0.08667,-0.065734,0.057996,0.091001,0.330809,-0.006039,0.058874,0.154176,-0.200056,-0.105647,-0.223035,-0.005839,0.057636,-0.14131,-0.016006,0.256818,-0.003694,0.059254,0.019981,0.231356,-0.185684,0.017339,-0.019109,-0.004683,-0.096835,0.153077,-0.035131,0.21018,-0.037572,0.16458,0.004103,-0.020712,0.187066,0.093055,-0.183113,0.049916,0.089165,-0.26817,-0.217294,-0.009565,-0.109831,-0.030311,-0.082878,0.296537,0.175723,-0.083982,-0.047067,0.207927,0.212889,-0.157706,0.168773,0.019166,0.191504,0.027115,0.02448,-0.138023,-0.050643,0.022769,-0.041534,-0.156827,0.268735,-0.044697,0.067742,-0.142742,0.033586,0.084087,0.04391,-0.087025,0.038628,-0.148723,0.060058,-0.064489,0.125117,0.162897,0.127916,-0.136205,-0.05599,0.118809,0.122349,0.171957,0.057444,-0.030786,-0.10886,0.133822,-0.004658,-0.075467,-0.060461,0.155709,0.270421,-0.246631,0.174486,0.014214,0.133249,0.17225,-0.278745,0.02872,0.072809,-0.115009,-0.339924,0.048439,-0.05566,-0.015013,0.169406,-0.126083,0.032324,0.012345,-0.018181,0.249094,0.001958,0.022188,0.101017,-0.001166,-0.028332,0.031838,-0.143514,0.097012,0.019444,0.027247,-0.049035,-0.012049,0.181933,-0.173972,0.057671,0.141907,0.102433,0.011589,0.041422,0.046412,0.181706,-0.182058,-0.04616,-0.02284,0.111054,0.119409,-0.110024,0.201882,-0.033171,0.106122,0.038733,-0.184777,0.117398,-0.022821,0.108675,-0.141364,0.006753,0.127676,0.048003,-0.010529,0.065598,-0.029406,-0.100972,-0.121006,0.036157,0.085477,0.045365,0.041871,-0.190552,-0.08616,0.138312,0.067742,0.117476,0.005451,0.067961,-0.050696,-0.00616,-0.185361,0.022313,0.029468,-0.21087,0.157745,-0.045686,-0.082535,-0.2618,0.304765,0.031294,0.067376,-0.001108,-0.129911,0.038665,-0.104444,0.145225,-0.231563,0.102753,0.21676,0.054853,0.016602,0.133109,0.019396,-0.088785,-0.119173,-0.014728,-0.008747,-0.117412,0.121953,-0.044291,0.012297,0.025227,0.006559,0.083896,-0.024601,-0.085191,-0.05411,-0.045935,0.188114,-0.075169,-0.036136,0.101939,0.000454,-0.332749,0.034639,0.077137,-0.090236,-0.001266,-0.044396,0.118868,-0.01577,0.03303,-0.061703,-0.100412,0.042241,-0.000219,-0.000946,0.162629,0.154541,-0.204363,-0.056502,0.009788,-0.002624,-0.039592,-0.043221,0.090279,0.024859,0.104244,0.086872,-0.169241,0.093557,-0.007967,-0.242489,0.217412,-0.306309,0.198432,0.009306,-0.024136,0.018276,0.034519,-0.005547,0.137816,-0.025605,-0.022157,-0.011637,-0.064163,-0.025059,-0.071387,0.07723,0.110176,-0.165773,0.061844,0.072224,-0.109845,-0.098885,0.098223,-0.008816,-0.091832,-0.116606,0.045969,0.12831,0.043121,-0.056157,0.054157,-0.08241,0.051251,0.197293,0.038442,0.073872,-0.070136,-0.116072,-0.138035,-0.025454,0.052808,0.106146,-0.105535,-0.210472,-0.13439,0.022894,0.241681,-0.087796,-0.041992,0.152973,0.004594,-0.20266,-0.000987,0.094236,-0.023002,-0.251325,0.09282,0.014881,-0.255068,0.02338,-0.251938,0.273931,0.009233,0.247086,-0.041107,-0.108845,0.028437,0.001132,-0.170211,0.276985,-0.12622,0.038834,-0.206869,-0.025009,0.0678,-0.15387,0.205738,-0.043977,-0.094926,0.139736,-0.065048,-0.084809,0.108788,0.071229,0.033925,-0.015703,0.025929,-0.153551,-0.047211,-0.01746,0.101223,-0.084096,0.059882,0.28071,-0.135553,-0.218963,0.065992,0.166408,-0.106785,-0.165161,-0.040103,0.07438,0.107066,-0.261788,-0.020707,0.111166,0.035372,-0.06086,0.061793,0.014775,-0.116966,0.011107,0.08401,-0.196063,0.221382,0.056945,-0.254967,-0.008462,0.047237,0.023917,-0.13198,0.201375,-0.157266,-0.143661,-0.015929,-0.043509,0.040264,0.088189,-0.139387,-0.007016,-0.027142,0.004211,-0.03282,0.058447,-0.044892,-0.041934,-0.00636,-0.078231,-0.095368,0.059275,0.112085,0.02648,-0.072028,-0.064596,0.166894,-0.065973,-0.063139,0.143548,-0.115311,0.044641,-0.108623,-0.16083,0.144257,-0.267687,0.163761,-0.21409,0.175791,-0.166276,0.088786,0.226285,-0.26846,-0.046861,0.022118,-0.035725,0.101748,0.016636,0.224447,0.031244,0.037752,-0.334429,-0.084815,0.149219,0.088425,0.011257,-0.054422,-0.179816,0.039971,-0.056314,-0.030672,-0.313708,-0.013979,0.021022,0.012868,0.012354,-0.021773,-0.137854,0.014354,0.285665,-0.04404,0.022282,-0.026612,0.01358,0.025249,-0.007676,-0.129108,0.094889,0.283175,0.119354,-0.054825,0.029943,0.164725,0.097685,0.036446,0.035848,-0.267653,-0.231842,-0.051089,0.068901,-0.006322,-0.100975,-0.18513,0.057824,0.073705,0.002677,0.174219,0.258587,0.131432,-0.068083,0.003383,0.19682,0.012735,0.138682,0.085119,0.016605,-0.025798,0.065683,0.076946,-0.004053,-0.038698,0.171126,0.272825,0.279534,0.082806,0.021811,-0.095964,-0.024247,-0.05224,0.035196,0.022514,0.335956,-0.001973,0.064186,-0.315189,-0.032952,0.084574,0.153916,-0.061657,0.03005,-0.046827,0.116557,0.057783,-0.188772,0.119834,0.00259,0.224365,0.071789,0.063444,0.14066,-0.051939,0.164529,0.12256,0.039624,0.053573,-0.019551,-0.189269,0.012663,-0.018543,0.028031,-0.002612,0.059119,0.087501,-0.018278,-0.149403,-0.020897,-0.286985,0.089059,-0.0124,0.291148,-0.063527,-0.005096,-0.071477,0.270029,0.317987,-0.002983,-0.002699,-0.014107,0.091867,0.377099,-0.028401,0.022712,0.07067,-0.097536,0.299967,-0.029361,0.001812,-0.075061,0.015,0.153353,-0.014912,-6.3e-05,0.042239,0.019373,0.11575,-0.038693,0.160033,-0.093022,-0.19145,0.158796,0.029449,0.171244,-0.088069,-0.011876,0.006441,-0.053861,0.172661,-0.021726,0.127166,0.015556,-0.055245,-0.111667,0.022415,0.344409,0.153916,-0.0534,-0.160268,0.253604,0.215967,0.146277,-0.028703,0.105415,-0.082873,0.13065,0.205328,0.041465,0.021237,-0.10267,0.259912,-0.054339,-0.004442,-0.133431,0.220896,0.22899,0.25905,0.010264,0.069842,0.230565,-0.010379,-0.110849,-0.001399,0.16848,-0.083298,0.086233,0.162633,-0.020714,0.270553,-0.058843,0.008769,-0.058073,-0.075386,0.060743,-0.038617,0.149845,0.067454,-0.028728,-0.063613,0.098782,0.21469,0.103107,-0.03995,-0.19466,0.145416,0.253865,0.282641,0.019265,-0.107912,-0.005955,0.37525,-0.174958,0.005765,0.119531,-0.015985,0.072644,0.019445,-0.037492,0.131123,-0.310672,0.283457,-0.043456,0.012279,-0.109473,0.023917,0.176601,0.055515,-0.099286,0.114763,0.117162,0.072201,-0.058727,-0.117372,0.199728,0.078758,0.213222,0.207146,-0.012583,-0.035743,0.02466,0.081824,-0.161918,0.038793,-0.125462,0.082819,0.010902,-0.010709,-0.062399,-0.010045,0.002435,0.176042,0.012603,0.027478,0.231673,-0.300728,0.067407,0.09899,-0.01207,0.091338,0.066062,0.121736,-0.034701,-0.0168,0.064561,0.163157,-0.047719,-0.109518,0.03354,-0.167317,0.096027,-0.021404,-0.055767,0.019575,0.075893,-0.151777,-0.210805,0.211671,-0.074561,0.077688,0.099117,0.209155,0.002165,0.008381,-0.023104,-0.033253,-0.010866,-0.049553,0.081134,0.131688,-0.166751,0.068855,-0.049368,-0.017223,0.115019,-0.039288,0.001279,0.160596,-0.005885,0.110917,-0.023764,-0.194202,-0.02356,0.037509,0.060946,0.099548,-0.0964,-0.122658,0.023173,0.150391,-0.128622,0.077847,-0.139068,-0.017584,-0.05858,-0.080398,0.199726,-0.078944,0.120098,0.00984,0.0437,-0.156845,0.010359,-0.058239,0.102322,0.004844,0.157779,-0.000536,0.170331,0.173799,-0.166892,-0.398659,-0.070975,-0.005591,-0.025421,0.197688,0.070518,-0.14921,0.150453,-0.00819,-0.091452,-0.254644,-0.047039,0.090227,-0.08865,0.06075,-0.071046,0.013529,0.079591,0.104491,-0.119191,0.027594,-0.221645,0.036221,0.000159,-0.187785,-0.056553,0.195425,0.095381,-0.043527,-0.120196,0.009371,0.004973,0.02852,0.165718,-0.071912,-0.187267,0.109944,0.186831,-0.332074,0.006063,0.123904,-0.082407,0.062874,0.178853,-0.00117,-0.030941,-0.176692,0.235034,-0.0962,-0.196915,0.021668,-0.07873,-0.035483,0.133762,-0.195028,0.146906,0.066545,0.161325,-0.190872,-0.080948,0.13454,-0.103306,0.0428,-0.215791,0.142523,-0.002456,0.008389,0.318236,0.020803,-0.066201,-0.378523,0.060232,0.034428,0.047355,0.079221,-0.288596,0.009989,0.335966,-0.242681,-0.211392,-0.193707,0.107725,-0.059734,-0.020827,0.005486,0.003821,0.126263,-0.097813,-0.125386,0.206769,-0.00518,-0.179682,0.193118,-0.234921,0.132788,0.090106,-0.129918,0.029252,-0.030738,0.25974,-0.037463,-0.062939,-0.148044,0.105974,-0.054148,0.006673,-0.060813,0.078581,0.292206,-0.194721,-0.273557,-0.008753,0.051577,-0.085627,0.017344,0.036771,-0.038285,0.00567,-0.056789,0.026707,-0.234477,0.147267,0.064407,0.055101,0.061701,-0.308189,0.107025,0.043595,0.029706,-0.04722,-0.16303,-0.054996,0.057083,-0.038892,0.161222,-0.038989,0.014958,-0.036247,0.052111,-0.019055,-0.228882,0.038343,0.030927,-0.026332,0.001666,0.021869,0.293277,-0.029987,0.049998,0.091317,-0.023284,0.034412,0.002933,-0.217923,0.234973,-0.117435,-0.141582,0.006772,-0.105296,-0.199777,-0.048969,0.109521,-0.040984,-0.00397,0.001504,-0.013034,-0.027832,-0.042357,0.055659,0.086359,0.020248,0.137716,-0.038267,0.193572,0.072465,0.161611,0.032671,-0.017731,0.228748,-0.269315,0.1687,-0.144214,0.00772,0.258777,-0.125758,-0.324842,-0.143161,0.031401,-0.061122,0.173835,-0.059867,-0.009239,0.006428,0.079189,-0.011165,0.235871,-0.159181,0.012206,0.110233,0.269562,0.339975,-0.013006,-0.045511,0.352589,0.041459,-0.017505,-0.054502,-0.038449,0.063262,0.348006,0.065492,0.244297,0.039976,-0.052222,-0.156766,-0.040272,-0.00426,0.002967,0.081807,0.136369,0.218086,0.107622,0.006843,-0.092572,-0.068,0.404105,0.005931,0.012395,-0.235558,0.121786,0.122522,0.122413,-0.017165,0.118957,0.212187,-0.034229,0.479016,-0.081932,0.097791,0.30465,0.030391,-0.010614,-0.077901,0.009743,0.321864,-0.194265,0.323842,-0.04713,-0.037269,0.220252,0.120301,0.129209,-0.054159,0.130481,0.076411,0.204108,0.022204,-0.047557,-0.081955,-0.045027,0.134975,0.113468,-0.037017,-0.087576,-0.121418,0.162178,0.269996,0.00047,0.00865,0.045026,0.083391,-0.030703,-0.087794,-0.12088,0.088318,0.305036,0.220147,-0.055367,0.268577,0.143168,-0.073101,-0.128089,0.028242,0.099324,-0.20407,-0.162775,-0.118816,-0.020315,0.191651,-0.030419,0.087547,-0.144753,-0.066458,0.048016,0.07098,0.24053,0.028252,0.057567,-0.066067,0.068134,-0.108549,0.016159,-0.013749,0.026355,0.237882,0.108251,-0.044936,-0.01891,0.170215,0.042651,-0.051547,-0.246404,0.036684,-0.000795,-0.215264,-0.0359,0.007264,-0.061494,-0.188642,-0.111579,0.510964,0.024819,-0.048332,0.160376,0.010446,0.01676,0.124647,0.035609,0.039091,0.033289,0.121377,-0.199727,-0.03119,0.149618,0.026873,0.029223,0.027498,-0.034536,0.047795,0.071961,0.176334,-0.042179,-0.036543,-0.218964,0.116952,-0.051155,0.249642,-0.043573,0.141968,-0.163519,-0.075234,0.218748,0.011579,0.106817,-0.194436,0.050979,-0.016193,0.098609,0.085525,-0.04696,0.0535,-0.196325,0.00495,-0.057724,0.210506,-0.098946,-0.037937,0.001996,-0.031559,0.203851,0.195935,-0.164513,-0.006917,-0.070203,0.196239,-0.217108,0.00506,-0.005976,0.095425,0.021918,-0.093343,-0.039343,0.004147,0.112038,-0.079912,-0.123525,0.023992,0.020684,-0.114763,0.229762,-0.350304,-0.007796,-0.002014,-0.03565,-0.000342,-0.233694,0.126567,-0.036648,0.082342,-0.025636,0.223367,0.107074,0.000877,0.078079,-0.196968,-0.294399,0.079455,0.066779,-0.037355,0.164745,-0.259783,-0.144671,0.080503,0.00196,-0.326451,0.006346,-0.031018,0.041581,-0.031047,-0.300241,0.126221,0.156158,0.003318,0.199783,-0.172658,-0.031787,-0.137241,-0.129093,0.162048,-0.001019,-0.018119,0.148219,0.054172,0.030844,0.164953,-0.212108,-0.064902,0.117655,-0.319459,-0.230876,-0.075816,0.016594,0.096788,-0.132372,0.002589,-0.136685,0.071992,0.07108,-0.075988,-0.051662,-0.079498,-0.006335,0.124602,0.069113,0.043945,-0.125078,-0.230668,-0.016686,-0.156255,0.040536,0.06571,0.003303,0.043965,0.067892,0.068744,-0.127813,-0.095863,0.0688,-0.131262,-0.216552,-0.25995,0.355477,0.016006,-0.117908,0.051335,-0.085121,0.027108,0.052195,-0.111269,0.005849,0.039635,-0.043553,0.017517,0.01324,0.044544,-0.319349,0.089613,-0.011941,-0.29579,0.144911,0.053523,0.088199,0.092142,0.069302,0.028974,-0.105225,-0.17074,-0.024115,-0.425863,0.106688,-0.029917,0.260493,-0.110709,-0.037611,-0.099949,-0.000726,0.222865,0.057569,-0.022337,0.109086,-0.179828,0.051391,0.171361,-0.052629,0.007725,-0.100361,0.001215,-0.00842,0.246649,-0.089666,0.075726,-0.252103,0.134446,0.098337,-0.071794,-0.17346,-0.048134,0.006439,-0.418715,-0.001268,0.085471,0.2181,-0.249873,-0.216971,0.128459,-0.017999,0.250893,0.007005,-0.255813,-0.012322,-0.007178,0.082384,0.099909,-0.06671,0.014898,-0.062062,-0.071822,-0.004296,0.065792,-0.00152,0.046123,-0.051977,-0.022653,0.197869,-0.071902,0.056752,-0.209531,0.328642,-0.03173,-0.076392,-0.351784,0.386582,-0.018824,-0.05062,-0.505799,-0.214542,-0.027286,0.014379,0.21639,-0.127198,0.055712,0.054791,0.065771,0.001811,-0.071776,0.037248,-0.00043,-0.028239,-0.069092,0.118024,0.029858,-0.055918,0.127898,-0.111901,-0.025648,0.128427,-0.047712,0.007891,-0.019562,-0.051845,0.030267,-0.070619,0.05579,-0.09809,-0.027576,0.073336,0.035357,-0.005137,0.130922,-0.171316,0.061935,0.054646,-0.058535,-0.029929,-0.059898,-0.032415,0.029666,-0.039699,-0.11611,0.009577,0.108279,0.014253,-0.030881,-0.099384,0.109791,0.156025,0.035271,-0.039416,0.170363,0.106098,0.007911,-0.185739,-0.05725,-0.120526,-0.16413,0.071129,0.013907,-0.001138,-0.058976,0.052847,-0.177167,-0.060322,-0.00588,0.028524,0.046037,-0.035887,0.04306,-0.010596,0.045,-0.172114,-0.268207,0.031968,-0.028321,-0.077859,0.007509,-0.019647,0.049313,-0.021326,0.090962,-0.002678,0.074436,-0.248421,-0.050539,0.024464,0.052844,0.01729,-0.186715,0.017223,0.165818,0.176736,-0.199526,-0.049885,0.003393,-0.199796,0.027084,-0.124847,0.208179,0.036204,-0.137807,-0.138137,-0.292264,-0.107037,-0.022459,0.054657,-0.009055,-0.086283,-0.215845,0.00045,0.034032,0.173515,-0.190097,0.020683,0.012389,0.092536,-0.194498,0.052818,0.109559,0.029365,-0.130658,-0.027219,-0.144142,-0.181704,0.020916,0.06466,-0.099652,-0.226568,-0.027512,0.005907,-0.188858,-0.118012,-0.289224,-0.188847,0.042732,0.052825,-0.095151,-0.053749,-0.138941,-0.078286,0.046951,0.339274,-0.087957,-0.027334,-0.060634,0.083904,0.11413,-0.284852,0.215242,-0.043744,-0.146797,0.050319,-0.126589,0.06855,-0.006443,0.008258,0.050418,-0.066562,-0.069825,0.001367,-0.077993,0.0871,-0.003213,-0.299168,-0.03669,-0.004868,-0.108148,0.023843,0.156566,0.00676,-0.084794,-0.168786,0.262101,0.088763,-0.079277,0.155046,-0.071717,0.245828,-0.10815,-0.050817,0.3864,-0.090145,0.019214,0.002913,0.009013,0.030017,0.146756,-0.327718,0.150739,-0.006949,-0.081502,-0.277524,-0.032959,-0.129199,-0.025488,0.097883,0.062367,-0.063978,0.113345,-0.234702,0.201805,0.243081,0.067199,0.12518,-0.092913,0.146709,-0.057062,0.144314,0.052692,0.049536,0.110995,0.089877,-0.28739,-0.191321,-0.046534,-0.011789,0.080689,0.075399,0.170041,0.01275,-0.209491,-0.185326,0.097895,-0.070291,-0.011648,-0.106947,0.049846,0.009548,0.093868,-0.062221,0.067753,0.158188,-0.148601,0.094468,-0.051355,0.003061,0.242491,-0.006807,-0.059626,0.007793,0.180857,0.188347,-0.158977,-0.235078,-0.073396,-0.123177,0.263007,0.057908,0.011967,-0.064791,-0.031912,0.264932,0.073666,-0.051813,-0.032133,-0.367613,-0.112045,0.181632,0.184201,0.05874,-0.023584,0.012677,-0.168376,0.097931,-0.007771,-0.105482,0.020109,0.061538,0.041064,0.019585,-0.074229,-0.098638,-0.096474,0.153068,-0.011495,-0.013672,0.171717,0.078904,-0.207047,-0.094035,-0.069863,0.198918,-0.073571,0.099738,-0.115464,0.055706,0.036599,-0.058288,0.193226,-0.081777,0.016473,0.141393,0.032971,-0.029008,0.017862,-0.006032,-0.096705,-0.045999,0.10402,0.054536,0.1891,-0.175131,-0.228785,-0.151784,-0.042004,0.213557,0.135619,-0.350641,0.154878,0.039593,0.109892,-0.123004,0.05093,-0.100353,-0.14591,0.299503,-0.307569,0.044163,0.136834,-0.076762,0.18339,-0.13735,0.08043,-0.049018,-0.011308,0.038961,0.11911,-0.22096,0.10262,-0.114935,0.144235,0.215805,-0.089119,-0.149277,-0.133318,-0.296087,0.391697,-0.034872,0.089106,0.018227,0.028103,-0.043112,0.054665,-0.109798,-0.219564,0.136781,0.0243,-0.043609,0.121552,-0.106524,-0.233629,0.343734,-0.151828,-0.015232,0.004488,-0.073768,0.001911,0.018753,-0.041688,-0.082279,0.163711,-0.056898,-0.164719,0.127623,0.014978,0.038695,0.062309,0.027368,-0.193909,0.10978,0.076824,-0.005834,-0.200975,-0.035333,-0.365257,-0.057867,0.000553,0.15584,0.113817,-0.182389,-0.177575,0.233815,-0.041106,-0.148078,-0.066279,-0.112518,0.047011,0.021513,0.110334,0.048825,0.040343,0.105337,-0.074519,-0.115165,0.024963,-0.030342,-0.194428,0.074467,0.007745,0.177335,-0.23094,-0.153834,-0.013666,0.087806,-0.176729,-0.085632,-0.092581,-0.041792,0.177747,-0.05016,-0.108961,-0.112687,0.155901,0.077391,0.121164,-0.033887,-0.083025,-0.217304,0.156634,0.232108,-0.01322,-0.124865,-0.041747,0.039882,0.08537,-0.079359,-0.040901,-0.059789,0.034095,0.266012,-0.015237,-0.232828,-0.237326,0.151658,-0.339619,0.105712,-0.122026,0.01888,0.042478,0.056851,-0.030868,0.157813,-0.217135,0.011265,0.148165,-0.062188,-0.041812,0.04647,-0.125909,-0.139391,0.032755,-0.174799,0.247715,-0.240845,-0.069599,-0.219545,-0.24081,0.290902,0.184305,0.170722,-0.103407,0.050432,-0.087741,-0.182242,0.028942,0.044818,0.051633,0.168947,-0.010273,-0.391165,0.142115,-0.247517,0.00804,0.076742,0.144619,0.053998,0.338356,-0.273071,-0.306525,0.01287,-0.077466,-0.039942,-0.040083,0.066636,0.054311,-0.122798,-0.039108,-0.140189,0.28486,-0.070586,-0.17397,-0.228045,0.206321,-0.011736,-0.101239,0.181403,-0.205695,-0.00233,-0.031019,-0.460758,0.08484,0.305139,-0.073172,0.236493,-0.074059,-0.180733,-0.035057,0.031547,-0.028138,-0.045471,0.028623,0.031542,-0.013123,-0.035653,-0.040921,-0.00011,-0.017505,-0.148307,0.030429,-0.04698,-0.143595,-0.137445,-0.0393,0.270627,0.005745,-0.130793,-0.12812,-0.061888,-0.128894,-0.003851,-0.118152,-0.112458,0.138581,-0.136331,0.000327,-0.031318,-0.022242,0.013799,-0.031181,-0.036404,-0.117037,0.031602,-0.263721,0.005265,0.029296,0.088603,-0.41083,0.03917,0.0247,-0.040035,-0.003959,0.126958,0.122033,-0.059169,-0.011029,0.15011,0.078105,-0.412926,-0.047735,-0.005092,-0.114007,-0.043212,0.016937,0.129159,0.008063,-0.110548,0.025474,-0.048912,0.081254,-0.025714,0.001775,-0.140206,0.133169,0.212729,0.021105,-0.335343,0.14755,0.048768,0.047274,-0.062032,0.234087,0.155586,0.223019,0.125321,-0.004001,0.171752,-0.192291,0.071355,-0.088683,0.022125,-0.174593,0.092682,0.02373,-0.227335,-0.034611,0.158921,-0.061498,0.007141,0.23729,-0.000589,-0.252446,-0.17885,-0.002223,-0.073377,0.041302,-0.137689,-0.355501,0.328758,0.118186,-0.070442,0.003936,0.368758,-0.22354,0.185385,-0.00998,0.035296,0.133521,-0.077706,0.094268,0.024955,0.051282,0.102614,0.006625,0.078918,-0.009665,0.353341,-0.025454,0.234827,-0.195741,0.066707,-0.242993,-0.034499,-0.237395,-0.105919,0.053929,-0.138735,-0.286539,-0.185807,-0.008438,-0.105164,-0.006809,0.082476,0.164997,0.185409,-0.076918,0.135157,0.011273,-0.034787,0.091466,-0.042831,0.281842,-0.06083,0.139257,-0.255735,-0.043641,0.129032,0.123673,-0.020446,0.00283,0.073532,-0.242814,-0.073782,-0.151376,-0.090245,0.00901,0.087591,-0.125911,-0.03995,-0.151113,-0.117932,0.11874,0.083428,0.308396,0.039964,-0.066688,0.208708,-0.052652,-0.057422,0.196663,0.032011,-0.098543,0.041698,0.130732,-0.001687,-0.03147,0.076879,0.117964,0.0836,-0.093841,0.056505,-0.192673,-0.143918,0.042787,-0.090803,-0.021254,0.011366,-0.089273,0.071942,-0.045716,-0.014963,0.122198,-0.019214,0.164685,0.019355,-0.036354,-0.042081,0.248169,0.135943,-0.065697,-0.003552,0.128632,0.051262,-0.005944,-0.189607,-0.019596,0.002927,0.038834,-0.027002,-0.148729,-0.019939,0.039009,-0.239729,0.201146,-0.226356,-0.031262,0.034775,-0.046061,0.031648,-0.090014,0.011304,0.012126,-0.006136,0.226628,-0.047249,-0.063262,0.093942,-0.022032,0.064175,-0.061983,0.09778,-0.059235,-0.223122,-0.131694,0.009434,-0.003709,0.17795,-0.211202,0.090757,0.02432,0.002018,-0.106899,-0.170393,-0.295281,0.247212,-0.043131,-0.191074,0.160245,0.079761,0.065053,-0.05322,0.039574,0.111758,0.037885,0.167808,0.02744,-0.020554,-0.054624,-0.111886,-0.078826,0.067279,-0.030567,-0.156393,-0.161536,-0.04198,-0.020568,0.300072,-0.115024,0.072573,-0.053109,0.020132,0.169449,0.01531,-0.150777,-0.064867,-0.035038,-0.153541,0.10853,0.135214,-0.033723,-0.12454,0.078244,0.006799,0.13181,0.063682,0.097083,-0.001736,0.077315,-0.204486,-0.092509,0.045235,-0.188845,0.019383,-0.050247,-0.097828,0.045741,0.072206,-0.162618,-0.087119,-0.184111,0.01549,-0.090148,-0.031297,0.071184,0.187775,-0.093733,0.064801,0.039514,0.071053,-0.037197,-0.098188,-0.176452,-0.05292,0.054301,0.313009,0.215243,-0.005172,-0.23104,-0.140502,-0.099668,0.026141,-0.171553,-0.123646,0.133027,-0.041218,-0.022933,0.032687,-0.079638,-0.126648,0.147223,-0.069453,0.124809,0.015373,-0.092795,0.011588,-0.036344,0.083185,-0.109766,-0.030953,0.045841,-0.001503,-0.053372,0.127964,0.24378,-0.33869,0.206724,-0.121899,-0.015668,-0.245924,-0.06977,0.102777,-0.077158,-0.154486,-0.038095,-0.030822,0.012967,-0.077261,0.029991,0.027279,-0.135877,0.089994,0.140846,-0.044148,-0.018341,-0.161508,0.011203,-0.103558,-0.029874,-0.010865,0.014539,-0.257506,-0.056122,0.046921,0.06399,0.164958,0.229856,-0.009129,-0.163995,0.102171,-0.104783,-0.00477,0.056528,0.138596,-0.130518,0.021385,-0.03312,0.133103,-0.123526,0.090918,0.040943,0.177355,0.050757,-0.121928,-0.033868,0.022472,0.041406,-0.008944,-0.022088,0.012234,-0.008122,-0.427937,0.05806,0.061702,0.115301,-0.017148,0.366561,-0.206862,0.073643,0.049054,-0.124202,-0.016132,0.05945,-0.170134,0.037102,0.110204,-0.005326,0.152825,-0.089594,-0.025029,0.09432,-0.134873,0.04733,-0.082051,0.079427,-0.074468,0.016019,0.068945,0.038448,-0.095875,-0.036467,0.062422,-0.057701,0.115383,-0.04247,0.060453,-0.150552,0.002954,-0.097989,-0.03051,0.067982,-0.042607,-0.116804,0.097948,-0.080353,-0.060186,0.101482,0.000627,-0.010156,0.17155,-0.046169,-0.117799,-0.011601,0.00614,0.11318,-0.192488,0.144235,0.101309,-0.159719,0.087177,-0.041558,0.061474,-0.22086,0.002968,0.100016,0.090211,0.248238,-0.225943,-0.137319,-0.008206,0.023008,0.004843,-0.10778,0.020703,-0.154535,-0.043351,-0.039201,-0.100221,-0.122409,-0.037779,0.179541,0.024295,0.033516,-0.075282,-0.015461,-0.129485,-0.044532,0.103444,0.156045,0.003603,0.024529,0.033879,-0.046091,0.111279,-0.057212,-0.164469,-0.030338,-0.023953,0.006087,-0.032748,-0.044499,-0.034643,-0.159318,-0.232731,0.054275,-0.164726,-0.03969,0.257102,0.202055,0.277137,-0.064077,-0.001814,-0.002512,-0.41108,0.065655,0.051489,-0.013286,0.211432,-0.142912,-0.22642,0.301632,0.009452,0.096702,-0.077208,0.065093,-0.033885,-0.008487,-0.044868,0.040454,-0.059054,0.170008,0.005281,-0.207868,-0.000427,-0.072761,-0.030191,-0.013771,0.054647,0.187761,-0.109603,0.012732,-0.052661,-0.019136,-0.08904,-0.05803,0.23002,-0.020476,0.133102,0.144505,-0.385129,0.02211,0.013964,0.127767,0.054169,-0.121693,0.167614,0.021087,0.071098,-0.115566,-0.049305,-0.096238,-0.020267,-0.013531,-0.010476,0.001611,0.074788,-0.021899,0.14487,0.074842,-0.257248,-0.016894,-0.020302,-0.071141,0.105795,-0.069351,0.052078,-0.018004,0.01401,0.128892,0.078107,-0.125624,0.000215,0.137413,0.010818,-0.23097,0.040749,0.016726,0.219015,-0.121242,0.096973,0.095831,-0.038293,0.171752,0.029514,0.038705,-0.171417,-0.041599,0.220155,0.313329,0.008446,-0.223071,0.024607,0.107625,0.101973,-0.021462,-0.079854,-0.021871,-0.116104,0.032483,0.10004,0.054393,0.040833,-0.139706,-0.01555,-0.115971,-0.032894,0.008151,-0.010681,0.261187,-0.005689,-0.205264,0.002994,0.169927,0.159756,-0.240632,-0.22095,-0.033968,-0.249306,0.096989,0.104549,0.16569,-0.092213,0.023987,-0.018677,0.187479,0.07276,-0.006692,-0.031147,0.219779,0.038601,-0.130843,0.010963,-0.140959,-0.008983,-0.018402,-0.046965,-0.009527,-0.172532,0.105349,0.107039,-0.126506,-0.020218,-0.304506,0.138356,-0.10335,-0.123414,0.02196,-0.100595,0.046284,-0.451709,0.267866,-0.065925,-0.067815,0.35463,-0.056599,0.025536,0.033582,0.095217,-0.025674,-0.090362,0.037829,0.058547,-0.170409,-0.146455,-0.293614,0.31679,0.031196,-0.203182,0.206591,-0.073368,-0.060616,0.048926,-0.103297,-0.050327,0.0076,-0.060998,-0.088658,0.270434,-0.014453,-0.3811,0.188762,-0.124044,0.022002,-0.062045,0.186583,0.237405,-0.028321,-0.414722,0.262335,-0.17257,0.237392,-0.021455,-0.069974,0.39337,-0.054674,-0.283209,0.016004,-0.099212,-0.16779,-0.011058,-0.195163,0.036646,-0.011263,0.104878,0.125619,-0.326054,-0.090574,-0.084273,-0.107695,0.288354,0.099846,-0.161532,0.211967,0.151989,-0.016828,-0.133475,0.065353,-0.137599,-0.228253,0.173236,0.114539,-0.077533,-0.094884,0.007621,0.156188,0.022418,0.084181,-0.12751,0.012013,-0.138039,-0.456733,0.119461,0.100845,0.014123,-0.274893,-0.260466,-0.020793,0.071327,-0.01796,-0.224437,0.200636,-0.019006,-0.059582,0.37326,0.104341,-0.416299,0.059102,-0.028404,0.084255,0.085697,-0.320414,0.084228,-0.03531,0.016365,0.048259,-0.179367,-0.033548,0.13198,0.131158,-0.222911,-0.039397,0.065163,0.022132,0.231053,-0.282637,-0.11763,-0.021982,-0.00686,0.184495,-0.173195,-0.026756,0.042955,0.038311,-0.059037,0.013377,0.095966,-0.044482,-0.034317,-0.134614,-0.056655,0.165656,-0.021404,0.014041,-0.081485,0.035074,-0.019461,-0.049283,0.039185,-0.081383,0.09493,-0.000723,-0.066229,0.147444,0.134578,-0.050521,-0.087294,0.083189,-0.122148,-0.146132,-0.02344,0.100939,0.074036,0.074843,-0.254954,0.050888,-0.066357,-0.073881,-0.014206,0.068122,0.02468,0.026286,-0.055473,-0.063502,-0.02843,0.025361,0.071639,-0.013144,0.09504,0.191607,-0.248441,0.002298,-0.012334,0.156254,0.132766,-0.15481,-0.207517,0.156919,0.02658,-0.065248,0.019954,-0.090803,0.068672,-0.080405,-0.092234,0.066849,0.026144,0.062479,-0.307379,0.094735,-0.043189,0.087591,-0.024004,0.118229,-0.078052,0.032006,-0.068121,0.0248,-0.094088,0.043894,0.035789,-0.057366,0.002799,0.131235,-0.008569,-0.056194,-0.201237,0.208816,-0.010719,-0.050003,0.067821,-0.114054,0.292473,-0.110076,-0.113548,-0.282505,0.171461,0.107481,-0.125614,-0.09001,-0.051353,0.044637,0.205909,0.094886,-0.181672,-0.093207,0.009179,0.02096,-0.124268,0.058686,-0.114036,0.131227,-0.060107,-0.224907,0.214618,-0.03306,0.01802,0.170303,-0.117035,-0.020408,0.076556,-0.191134,0.071979,-0.031172,0.09243,-0.0719,0.05013,-0.121872,0.098566,-0.154789,0.152293,-0.116154,0.026581,-0.045693,0.028752,0.058372,-0.017097,0.145983,-0.081983,-0.081844,0.020783,-0.060436,0.031752,0.034931,0.085657,-0.149499,0.07407,-0.10984,0.162188,-0.118221,0.081932,-0.108821,0.071904,-0.14388,0.168646,-0.152827,-0.145006,0.187231,-0.184628,0.011194,-0.018877,-0.05453,-0.033046,0.019453,0.02817,0.13038,-0.014899,0.004091,0.260768,0.002549,-0.181194,-0.104875,0.003007,0.101638,-0.082195,-0.042413,-0.085605,-0.039939,0.025888,0.066078,-0.020302,-0.021414,-0.02042,0.038237,-0.087086,0.105376,-0.150102,-0.02638,-0.027592,0.045316,0.000446,0.040198,-0.051916,0.277411,0.125082,0.282247,0.008097,0.034194,0.256786,-0.157806,-0.06821,-0.174723,-0.026797,-0.185509,-0.217172,0.10784,-0.143904,0.01643,0.004206,-0.367797,-0.195647,-0.224634,-0.041073,0.153054,-0.062331,-0.063928,0.177968,-0.01466,-0.180478,-0.036954,-0.079313,0.079925,0.003918,0.146676,0.097082,0.226878,0.193368,0.018982,0.054823,-0.058639,-0.201562,-0.28762,0.020346,0.056473,0.069439,-0.229542,0.003394,0.069031,-0.267744,-0.127742,-0.074905,-0.164902,-0.044054,-0.068766,0.027205,-0.303846,0.129034,-0.03218,-0.112345,0.045919,-0.027372,-0.097486,-0.060645,0.227517,0.09257,-0.058492,0.318911,-0.00763,0.095389,0.080632,-0.18894,-0.03847,0.008099,0.105268,-0.504032,-0.003062,-0.088039,0.018612,-0.113819,-0.101439,-0.168586,-0.126601,0.008482,0.007569,-0.062134,0.036006,-0.018358,-0.026791,-0.163054,0.213621,0.03614,-0.242173,-0.020643,0.079403,0.229233,-0.1651,0.090834,0.027527,-0.291554,0.20068,-0.108614,-0.048969,-0.080833,-0.100639,0.163358,-0.074929,0.135662,0.052324,-0.277809,0.06623,-0.081293,-0.08627,-0.023983,-0.132792,0.149548,0.012905,-0.174227,0.016166,-0.142671,0.356391,-0.249661,-0.026477,-0.015576,0.05827,0.07103,0.109854,-0.011544,0.020242,-0.152677,0.19272,0.061438,-0.049915,-0.03698,0.173622,0.061962,-0.103469,0.038946,0.05415,0.002633,-0.060607,-0.142554,-0.040211,-0.005998,-0.034439,-0.173335,-0.109557,0.068651,0.048454,0.12052,-0.267799,-0.113668,-0.291349,-0.008629,0.068653,0.15005,0.15456,-0.091427,-0.069629,-0.083341,0.263663,0.154826,0.060784,0.014781,-0.129078,-0.083867,-0.018664,0.05257,0.013079,0.016883,-0.288042,-0.06006,0.073408,-0.018007,-0.062141,-0.099943,-0.151587,0.175206,0.025339,-0.084748,-0.019916,-0.335217,0.024458,0.005687,0.116608,0.112512,-0.143063,0.073654,-0.03749,0.074134,-0.007247,-0.034044,-0.087196,0.010204,-0.213058,0.138154,0.091319,-0.072067,0.056478,-0.164158,0.014714,-0.005248,0.027188,-0.063849,0.219062,0.116602,-0.039898,-0.04208,0.002663,-0.159436,8.3e-05,0.027109,-0.041926,-0.08387,0.140723,0.129377,0.325461,-0.068062,0.015461,-0.042477,-0.06953,0.064622,-0.011546,-0.001686,0.071825,-0.081241,0.020332,0.01063,0.059585,-0.063749,0.013581,-0.072723,0.016808,-0.091429,0.104984,0.003583,0.1353,-0.009515,0.027367,-0.212203,-0.155867,0.066927,-0.129408,0.019525,-0.062624,0.091229,-0.014187,-0.002333,0.069619,-0.140196,-0.036198,-0.09765,-0.061623,0.007195,-0.084768,0.083285,-0.082958,0.027128,-0.033925,-0.022676,0.019893,0.039097,-0.113826,0.009759,-0.12112,-0.00663,-0.013231,0.017694,0.007222,-0.154212,0.037338,0.073947,-0.050572,-0.026617,-0.054383,0.068145,-0.078753,-0.016234,0.122398,-0.04832,-0.198516,-0.04809,0.01876,-0.003296,0.044827,-0.093262,-0.0067,0.122484,-0.010223,-0.027614,0.022559,0.051241,-0.001459,0.011382,0.201534,-0.05186,-0.05843,0.013504,-0.066507,0.089363,0.062233,0.088641,-0.160193,-0.03387,0.095626,0.1359,-0.020549,-0.213862,0.076693,-0.033035,-0.041166,0.07329,-0.046092,-0.005962,-0.117712,-0.044532,-0.025986,0.018,-0.001823,-0.05751,0.052693,-0.021655,0.061107,-0.014149,-0.006627,0.062725,0.062439,-0.084394,-0.005039,-0.1547,0.062456,-0.079932,0.164425,0.014134,-0.133446,0.035019,0.091774,0.030829,0.102258,-0.095238,0.044459,0.003542,-0.14108,0.063007,0.031988,-0.075335,-0.007401,0.021435,0.004739,-0.056311,-0.066423,0.046738,0.056511,-0.065636,-0.004178,0.121032,-0.052026,0.097125,0.019539,-0.108509,0.041416,-0.012153,0.097891,-0.156974,0.05454,-0.055764,0.04256,0.102026,0.14732,-0.045993,-0.004047,0.030197,0.001035,-0.000329,0.051703,-0.076683,0.051146,-0.08175,0.016927,-0.113741,-0.072695,-0.010299,0.076115,-0.048175,-0.071503,-0.007435,-0.017713,0.141854,-0.039249,0.017235,0.002402,-0.075235,0.025504,-0.07764,-0.573707,-0.766601,0.691296,-0.115341,0.316618,0.381756,-1.163436,-0.021292,0.009735,0.056995,-0.040953,-0.015714,-0.032272,0.02035,0.002939,-0.070516,-0.083534,0.040374,0.177062,-0.085269,-0.015211,0.071331,0.024732,0.029548,0.080014,-0.028575,-0.157526,0.019119,0.009759,-0.060752,0.087891,0.002212,-0.026124,-0.061544,-0.012824,-0.024509,-0.057606,0.031505,-0.029374,0.051235,0.079488,-0.05295,-0.026049,-0.030201,0.040348,0.053355,-0.07531,0.025197,-0.049529,0.000369,0.02291,-0.00487,-0.127499,0.009986,0.020952,-0.136925,-0.05848,-0.174409,0.008798,0.009896,0.002582,-0.073209,-0.028963,-0.231201,0.005724,0.134926,-0.132346,0.112507,0.06134,0.007021,-0.067506,0.174698,-0.127983,0.174473,-0.044972,-0.001432,-0.012083,-0.014448,0.024666,-0.01757,-0.000234,-0.061786,-0.03363,0.027065,0.042255,-0.313863,0.023614,-0.353066,-0.029827,-0.013705,-0.007012,0.112121,-0.108114,0.033154,-0.030512,-0.098338,0.035324,-0.082313,-0.371549,0.028588,-0.134081,-0.22168,0.046741,0.005003,0.00958,0.254808,0.01328,-0.165728,-0.073159,-0.015246,-0.013457,0.044469,0.027765,0.165663,0.017355,-0.258151,-0.064369,-0.174605,0.067584,-0.023528,0.268454,0.265809,0.305004,0.153429,-0.085642,0.063006,0.027002,0.138745,0.257778,-0.015753,-0.112531,-0.360553,-0.014124,-0.274263,0.015755,0.137042,0.090254,0.200035,0.177702,0.037695,-0.263659,0.080825,0.233598,-0.226882,-0.053651,-0.077061,0.133751,0.247808,0.052326,0.005343,0.235813,-0.01405,-0.04929,-0.07194,-0.009051,0.144872,0.120668,-0.092157,0.278378,-0.034148,0.000105,0.049498,-0.045857,-0.228752,0.003113,0.075664,0.059002,-0.003052,0.065186,0.018491,0.095576,0.070764,-0.00394,0.000767,0.010432,0.098897,-0.20222,0.149336,-0.143936,-0.008442,-0.03987,0.015807,-0.05313,0.024559,-0.009464,0.110848,0.068513,-0.015149,-0.316936,-0.011797,0.04541,0.126529,-0.069927,-0.224098,-0.044163,-0.066846,0.110315,0.285681,0.224723,-0.050391,-0.165604,0.280248,0.176593,-0.230387,-0.044844,0.221418,-0.04808,-0.144342,-0.050759,0.077522,-0.145512,-0.18544,-0.124906,0.152849,0.038641,-0.05806,-0.288633,0.193749,0.126114,0.042349,-0.330809,-0.108231,0.055119,-0.298421,-0.062953,0.411709,0.010487,-0.227287,0.007863,0.03212,0.224082,-0.121918,-0.122601,-0.020088,0.019829,-0.009113,-0.04541,-0.014992,-0.216208,0.034275,0.001839,0.015891,0.082727,-0.190244,-0.08919,-0.009484,0.042814,0.050118,0.175325,0.069766,-0.125681,-0.206323,-0.136231,-0.045278,0.022195,0.249255,-0.084417,0.03216,-0.039737,0.012339,0.18408,0.013777,0.173689,-0.140017,0.014969,-0.021035,-0.00353,-0.057161,-0.193419,0.011723,-0.283565,0.222635,0.03053,-0.109125,0.012476,0.051401,0.177742,-0.185111,-0.026874,-0.007347,0.131318,0.040066,-0.011903,-0.2629,-0.010167,0.018313,0.267338,-0.044678,0.073605,0.03602,-0.428524,0.023459,0.027278,0.076954,0.103268,-0.159711,-0.176641,-0.142451,-0.033651,-0.031283,-0.076465,0.012226,0.21135,-0.092932,0.021259,-0.070616,0.063578,-0.024223,-0.119817,-0.065916,-0.236489,0.045497,0.077667,0.12918,-0.041018,0.018271,0.048441,0.049503,0.01291,0.011688,-0.043648,0.134439,0.113558,-0.125538,0.079797,0.06916,0.007588,0.038541,-0.239661,-0.056803,-0.028635,0.198666,-0.057629,0.06569,0.017302,-0.124036,0.013585,0.005471,0.026178,0.070359,0.075498,-0.166153,-0.155018,-0.124323,0.029934,0.125524,0.106925,-0.135625,-0.03579,-0.126019,-0.07019,0.009056,0.308218,-0.020384,0.218162,-0.208713,-0.040631,-0.117076,-0.102925,-0.022058,0.058119,0.01059,0.121204,-0.194125,-0.063756,-0.034228,0.200618,0.091693,-0.104618,0.091083,-0.060789,0.093733,-0.195601,-0.068633,0.052432,0.025177,-0.276639,0.053979,0.142423,-0.133048,0.083696,-0.035518,0.108888,0.063206,0.151697,-0.226305,0.087758,0.096395,-0.232841,-0.128239,0.066564,0.136123,-0.040615,0.023417,-0.01458,0.036216,-0.131293,0.030942,0.092956,0.226653,-0.155018,-0.099273,-0.093845,-0.067588,-0.002554,0.061848,0.119206,-0.076798,-0.085155,-0.133018,0.155115,-0.034355,-0.105643,0.088607,0.111334,-0.083866,0.089627,0.070751,-0.22604,-0.103812,-0.041971,-0.019459,0.107651,-0.006015,-0.138702,-0.009241,0.220833,-0.166217,0.055197,0.111328,0.063568,0.060149,-0.129219,-0.180336,-0.042081,0.064211,0.005254,-0.032284,0.027442,-0.341228,0.070574,0.082571,0.091812,0.048512,0.269492,-0.286395,-0.022574,-0.020697,-0.015332,-0.0698,0.025026,0.095079,0.021302,-0.032476,-0.115612,-0.02929,-0.058209,0.017919,0.113186,0.323078,0.106352,-0.020348,-0.136511,-0.157957,0.106435,-0.019833,-0.078404,-0.080023,0.141342,-0.232342,0.108441,0.113498,-0.003447,0.006969,3.9e-05,-0.023975,-0.014236,0.088625,-0.050041,-0.082812,-0.037615,-0.010051,0.021583,-0.10975,0.109714,-0.054675,0.096,-0.025758,-0.026498,-0.216284,-0.000734,0.077687,0.01148,-0.007794,0.034617,-0.020634,-0.088206,0.193908,-0.108947,-0.051394,-0.046353,-0.020728,0.138699,-0.237345,0.141593,0.012693,-0.051074,-0.037152,0.044787,-0.120041,-0.021576,0.114868,0.065287,-0.02998,0.037859,-0.020152,-0.003906,-0.021387,0.002317,-0.027902,0.061309,0.044632,-0.047073,0.019958,-0.045377,-0.021783,0.006287,0.001437,0.158004,-0.036036,-0.174279,0.16913,0.005396,0.257904,-0.019871,0.052548,-0.103418,-0.124754,0.063934,0.005935,0.128517,0.328312,-0.029863,0.18247,-0.011359,-0.008352,-0.000173,-0.019912,-0.015265,0.022567,0.037881,-0.032083,0.153508,-0.276579,-0.01578,0.034875,0.304139,-0.056167,0.100277,-0.064093,0.253634,-0.15386,0.118403,0.167727,0.005491,-0.333704,0.312753,0.305059,0.054474,-0.02921,-0.309132,0.163532,-0.108713,0.098261,0.036077,-0.150063,0.035848,0.153258,0.098728,-0.01194,-0.006018,0.003971,0.022528,-0.32745,-0.055362,-0.10678,0.061771,0.019028,0.257452,-0.125884,0.090851,0.179909,0.199912,0.321779,-0.0587,0.088671,0.213641,0.109234,0.209352,-0.035143,0.02116,-0.165712,0.076858,-0.156575,0.026104,0.062021,0.024421,-0.013265,0.141845,-0.019267,-0.208286,-0.293206,-0.049916,0.104465,-0.040627,-0.139981,-0.116164,-0.017042,0.075851,-0.127945,-0.155704,0.134659,0.204757,0.467304,-0.087971,0.221317,0.101063,0.077313,-0.004713,-0.039731,-0.018012,-0.002292,0.04416,0.068696,-0.002572,0.029021,0.104447,-0.162981,0.075144,0.019312,0.036828,-0.023194,0.067786,0.004061,0.00303,0.292354,-0.164514,-0.222766,-0.184608,-0.02783,0.105858,0.058274,0.076781,-0.022753,-0.02352,-0.120061,0.137758,0.1294,-0.060082,0.001374,-0.062084,-0.117619,0.238549,-0.103647,-0.010689,0.055005,0.104786,-0.18218,-0.062619,-0.021222,0.062826,0.11813,-0.039297,0.073538,0.024392,-0.116934,-0.102899,-0.261519,-0.059287,0.049763,-0.290621,-0.071583,0.072922,0.104785,0.075027,-0.079245,-0.054744,0.048896,-0.147266,0.054081,-0.107017,-0.06674,-0.0947,0.228015,0.02214,0.065985,0.305278,-0.141629,-0.184042,-0.05216,0.169808,0.115346,0.118973,-0.344134,0.046023,-0.346118,-0.106837,0.157003,0.026851,-0.034136,0.146153,0.199813,-0.189406,0.056649,0.002413,-0.153197,0.105193,0.189165,-0.173256,-0.031586,-0.001269,0.116518,0.089255,-0.039661,0.003679,-0.006736,-0.222332,0.12284,-0.29329,-0.05301,0.084139,0.123818,-0.092358,-0.123455,0.083949,-0.276554,-0.156087,-0.071127,-0.074265,-0.096597,0.007261,-0.027827,0.057057,0.134944,-0.016446,-0.141317,0.162155,0.027479,-0.030272,-0.003571,0.157804,0.062223,-0.170503,0.087585,0.054055,-0.059867,-0.08287,0.050155,0.030973,0.000319,0.093975,-0.013276,0.043167,-0.044448,0.121533,-0.033194,-0.108496,0.0157,-0.166853,-0.03195,0.004815,-0.181508,0.125261,0.228255,0.057406,-0.095511,0.011906,0.039265,-0.029532,-0.05295,0.046056,-0.026174,0.093905,-0.082271,-0.027382,0.178745,-0.268712,0.054924,-0.072247,-0.046661,-0.14288,0.064221,-0.162929,0.191767,0.06046,-0.023662,0.083431,-0.030155,-0.110254,-0.022927,0.07392,0.072316,-0.108042,0.043627,0.010999,-0.063091,0.096016,0.038625,0.022316,0.015522,0.042323,0.046339,-0.053219,-0.031476,-0.00812,0.153446,-0.041501,-0.037788,-0.164657,-0.002701,0.061015,-0.202794,-0.012753,0.070801,-0.042018,0.016141,0.046687,-0.171155,0.17391,-0.253803,-0.019434,0.112932,0.128459,-0.036568,0.076866,0.047221,0.006308,-0.070403,-0.126704,0.042141,0.055932,-0.136514,-0.126771,0.049775,0.09723,-0.093827,0.045988,-0.194755,-0.046812,-0.055177,-0.01181,-0.0394,0.022201,0.181142,0.116074,0.147414,-0.150935,-0.015818,-0.110208,-0.110031,-0.007439,-0.093348,-0.163605,0.291485,0.061056,-0.072293,-0.069208,0.007388,0.033855,0.078551,-0.153685,0.088769,0.086465,-0.124017,0.093632,-0.104497,0.038201,-0.042138,-0.09025,0.058253,0.163034,-0.044845,-0.213939,0.049926,0.088546,0.13218,0.098532,-0.105343,-0.160752,0.00372,-0.311823,0.240708,-0.052059,0.042273,-0.011406,0.08667,-0.016662,-0.029174,-0.032376,-0.255689,-0.242217,0.137837,0.08698,0.030041,-0.009591,-0.036883,-0.01978,0.107209,-0.165201,-0.088238,0.025894,-0.003266,0.07895,-0.082455,0.009363,-0.029031,0.045891,-0.011822,-0.002505,-0.053969,-0.00841,0.043861,-0.135304,0.053884,0.040235,-0.073943,0.019918,0.07314,-0.119902,-0.140326,0.070635,-0.023508,-0.092548,0.103838,-0.268852,0.08562,-0.045957,0.17571,-0.056815,-0.059218,6.3e-05,-0.396704,0.366177,-0.22129,-0.192853,-0.370132,0.504978,0.17014,-0.179922,-0.016951,-0.010071,-0.095795,-0.176006,0.116982,0.173486,0.023864,0.049891,-0.002037,-0.109565,0.044777,0.033605,-0.045702,-0.046245,-0.076181,0.055493,-0.060216,-0.006287,0.038261,-0.013005,-0.006683,-0.019924,-0.108206,0.163944,0.038723,-0.089277,-0.063098,0.153507,-0.108179,-0.074158,0.109657,0.032814,-0.024955,-0.117584,-0.029565,0.006579,0.13199,-0.098781,-0.029813,-0.008228,-0.067068,0.055537,-0.021142,0.057555,-0.016614,-0.058094,-0.165296,-0.117869,0.332805,-0.155915,-0.018545,-0.087056,-0.065961,-0.010584,-0.062104,-0.024724,0.036374,-0.039958,-0.112231,0.037805,-0.067945,-0.14966,-0.147086,-0.021116,0.006463,-0.05663,0.007112,-0.040131,-0.007048,-0.026218,-0.063013,-0.047857,-0.00587,-0.010764,0.034302,0.002031,-0.04808,0.045004,-0.037663,0.174327,-0.016325,-0.270002,0.123128,-0.182795,0.045007,-0.045917,-0.016492,-0.02185,-0.17893,-0.002523,-0.044146,0.143518,0.077501,0.130493,-0.04773,-0.026038,0.209341,0.029582,0.06941,0.027932,-0.031238,0.090022,0.007295,0.135653,-0.122159,-0.052979,0.139825,-0.007391,0.141651,0.14611,-0.044193,0.017672,-0.250403,-0.280033,-0.14987,-0.07704,-0.015545,-0.187211,0.143527,0.288711,-0.026354,-0.27757,-0.029069,0.100413,-0.079811,-0.044255,0.069999,0.163697,0.167615,0.038912,-0.077084,0.225181,0.171605,-0.055389,0.108687,-0.10683,0.466121,-0.007726,-0.065407,0.041779,-0.028627,-0.026295,-0.101904,-0.100147,-0.225322,-0.061644,0.189516,0.189748,-0.015397,0.06251,0.035685,-0.070723,0.086488,-0.183018,-0.356811,-0.078921,0.174559,0.107764,-0.023713,0.244287,-0.068293,0.069186,-0.103065,-0.023524,0.278167,-0.01548,0.14114,0.150265,-0.169279,0.008459,-0.01286,-0.120702,-0.017251,-0.090971,-0.121461,-0.086394,-0.059625,0.17207,0.190761,0.068795,-0.033447,0.076999,-0.025246,-0.312958,-0.072989,-0.120452,0.112034,-0.116271,0.119423,0.38644,-0.071247,-0.072753,0.121695,0.112287,-0.037899,-0.022001,0.184259,-0.100164,0.170954,-0.072297,0.01664,0.017488,-0.053557,-0.235289,-0.198275,-0.025101,0.00025,0.105649,0.119455,-0.132238,0.096053,-0.245106,0.103021,-0.31794,-0.435044,-0.137917,0.197221,0.189318,-0.037966,0.15019,-0.115752,0.043486,0.345425,0.01181,0.01819,0.007105,-0.057002,-0.08497,0.042107,-0.055824,0.027718,-0.106111,0.019494,-0.111911,-0.018648,0.002276,-0.155652,-0.066868,0.151245,0.012339,-0.001876,-0.076069,0.028925,-0.083177,-0.012932,-0.153923,0.202206,0.146566,0.270808,-0.145257,-0.120041,0.238955,0.07717,-0.033743,0.066774,-0.049241,-0.106004,-0.14112,0.119268,0.052909,-0.027953,0.196043,0.051192,-0.026501,-0.171761,0.017629,0.034258,-0.070311,-0.115084,0.100962,0.025382,-0.089233,-0.11703,-0.101021,0.039203,-0.143881,0.077345,0.036398,0.035543,0.245015,0.005645,0.059002,-0.075599,0.021011,-0.021409,0.105452,-0.169276,-0.076613,-0.190483,-0.13597,0.015047,-0.095349,-0.016245,-0.028171,-0.022283,0.011288,-0.109625,-0.146989,0.102867,0.054754,-0.015081,-0.053306,0.047509,0.100922,-0.137608,-0.068679,0.170575,0.09287,0.112491,-0.208223,-0.092014,-0.046752,0.195445,0.194587,0.116533,0.111471,0.057815,-0.08242,-0.325759,-0.156008,0.055707,-0.059842,-0.263719,0.109995,-0.030051,-0.022249,0.086068,-0.061498,0.013522,-0.009236,0.006774,-0.121921,0.058225,0.030496,-0.154722,-0.188503,0.064573,0.134947,0.06885,0.143318,-0.077061,0.087545,0.151753,0.075638,-0.250046,0.079224,-0.385288,-0.069665,-0.105554,0.132479,0.217499,-0.169187,-0.151042,0.054011,-0.293827,0.058531,-0.005081,-0.165085,0.117026,-0.099485,-0.003693,-0.046021,-0.137111,-0.092386,0.133416,-0.351486,-0.022954,0.094001,0.156863,0.292946,-0.014036,0.072207,-0.083797,0.000597,-0.154859,0.053275,-0.062984,0.112228,0.008314,-0.093209,0.159073,-0.149093,-0.229865,0.07858,0.041714,0.085558,0.007783,-0.178593,0.05937,-0.031643,0.092483,0.066095,0.000399,-0.039303,-0.25466,-0.180592,0.00792,0.194209,0.073593,0.10924,-0.082267,-0.247254,-0.083913,0.129656,0.204875,0.112126,0.165069,-0.327032,-0.007691,-0.131035,0.165761,-0.148277,0.065865,0.039906,-0.293032,-0.015352,-0.034409,0.025684,-0.080019,0.062745,0.123589,-0.137131,-0.321939,0.023005,0.047593,-0.257708,0.292258,-0.13081,-0.081911,0.098902,-0.026611,-0.134478,0.101354,-0.084348,0.038233,0.042274,-0.036816,0.105747,-0.057047,-0.189881,0.218659,-0.054306,-0.075872,-0.11196,0.086612,-0.012759,-0.110804,-0.043976,0.023405,-0.092631,0.223548,-0.159658,0.071037,-0.18678,-0.10379,-0.200826,0.147759,-0.028048,-0.111642,0.045333,-0.144265,-0.054275,-0.163067,0.303255,0.082856,-0.00879,-0.540518,0.367777,0.0459,-0.05024,0.176835,-0.280894,0.025425,-0.047608,0.093444,-0.050146,-0.149494,-0.097019,-0.041734,0.172867,0.087955,0.053138,-0.141764,-0.123359,-0.083814,-0.0353,-0.096126,0.123876,0.160784,-0.185842,-0.00536,-0.054117,0.093912,0.030758,-0.157804,-0.075266,-0.231367,0.101977,0.02212,0.082339,-0.160586,-0.00422,0.06443,0.0639,-0.010879,0.036684,-0.11527,0.01431,-0.044951,0.003311,0.019792,0.347812,-0.032748,-0.152893,0.014886,-0.023344,0.12687,0.141412,0.13514,0.09273,-0.029413,0.238926,-0.10635,-0.005818,0.104036,-0.057683,-0.002839,-0.031228,-0.044262,0.084366,-0.01675,0.176142,-0.177315,0.153185,-0.008896,-0.002951,0.027151,0.004344,0.045967,-0.009974,-0.023087,-0.039531,0.133982,-0.194118,0.174493,0.025777,-0.092699,-0.082335,-0.18259,0.213345,-0.039805,0.062383,-0.013592,0.169288,-0.013292,-0.026504,0.022078,-0.521662,-0.113463,0.150593,-0.05391,-0.058193,0.022652,-0.161741,0.176849,0.011416,0.008553,0.038793,0.047374,-0.138887,-0.031752,-0.128471,-0.036073,0.381567,-0.246721,0.004656,-0.052422,0.041076,0.062192,0.182703,-0.011445,0.008113,-0.124963,-0.317344,-0.026889,0.020463,0.077918,-0.579477,-0.134908,-0.109445,-0.002933,0.00173,-0.06177,0.042503,-0.204556,0.000258,0.067167,0.009676,0.208634,-0.030406,0.006562,-0.089617,0.149875,0.109075,-0.17024,0.0275,-0.016562,0.305228,0.006969,-0.219057,-0.002791,-0.022357,0.041067,-0.05122,-0.275818,-0.047574,-0.170317,-0.100608,0.05221,0.273721,-0.034761,-0.186629,0.239066,-0.145055,0.035494,-0.045386,0.068442,-0.112847,-0.032511,0.030199,-0.059232,0.170656,-0.017066,-0.229851,0.030418,-0.016735,0.05309,-0.191307,0.326931,-0.002562,0.052789,-0.060596,0.029043,-0.127694,-0.184278,-0.049363,-0.081082,0.149534,0.073162,0.215976,0.067169,-0.014503,-0.093801,-0.235608,-0.043661,0.074685,-0.104773,-0.106286,-0.482713,-0.103315,-0.05255,0.256237,-0.04207,0.091375,0.113502,-0.005795,0.274731,0.034055,0.06083,-0.164806,0.019861,-0.132749,-0.151808,-0.065888,-0.024507,-0.016707,0.105205,-0.258722,0.030136,0.303342,0.038445,0.021976,0.030564,-0.274343,0.094584,0.024094,-0.106669,0.027139,0.035433,0.155846,-0.028007,0.108669,-0.171396,0.239279,0.136889,-0.066347,-0.036351,-0.053645,0.320376,0.129916,-0.012448,-0.034784,0.001321,-0.061302,-0.064537,-0.007955,0.079639,0.036807,0.037123,-0.055544,0.017924,-0.179979,-0.201868,-0.11413,0.219068,-0.02057,-0.009983,0.334946,-0.01482,-0.020844,0.049389,-0.280792,-0.112304,0.021943,0.171925,-0.062376,-0.00437,0.0303,-0.049142,0.144817,-0.067452,-0.042357,-0.103145,0.125979,0.201981,-0.018815,-0.061496,-0.144134,-0.054774,0.029424,0.0066,0.155541,0.054334,-0.038606,-0.011396,-0.00301,0.189174,-0.260831,-0.031291,-0.038997,0.046198,0.058504,-0.299369,-0.154202,-0.132089,0.024514,-0.139411,0.197488,-0.190522,-0.210341,-0.005905,-0.0209,-0.00439,0.016501,0.062332,0.101846,-0.067683,-0.065844,-0.210037,-0.077782,0.044929,0.003988,0.043451,0.006112,-0.095111,0.051323,0.029154,0.108096,-0.19908,-0.179135,0.080052,-0.031331,-0.237899,-0.14097,0.180644,0.011307,-0.017077,-0.04413,-0.062717,-4e-06,0.061658,-0.093775,-0.102446,-0.037987,0.04906,0.056089,-0.003938,-0.055762,-0.033677,0.04369,0.091306,-0.262353,-0.113044,0.223167,-0.037503,0.03756,-0.195778,-0.138446,0.057117,0.003329,0.16201,-0.064461,-0.119445,-0.374926,-0.055952,0.091974,0.136643,0.012853,-0.367244,0.02767,0.137623,-0.141223,-0.137182,-0.083701,-0.12472,-0.035834,0.095566,-0.033491,-0.184088,0.07992,0.004604,0.153818,-0.003864,-0.123372,0.048697,-0.10791,0.184,0.059067,0.015522,0.067136,-0.092291,0.284668,0.06511,-0.160777,0.004129,0.068557,0.054357,-0.138445,-0.173477,-0.012386,0.050527,0.072728,-0.076791,0.006728,-0.114913,0.007216,0.010762,-0.135153,0.05749,-0.028593,-0.137439,-0.092152,-0.030052,0.21516,0.038345,-0.017697,0.077732,0.190425,-0.141062,0.045063,0.061419,0.119257,0.127948,-0.427201,-0.055182,-0.010078,0.119595,0.002972,-0.090585,-0.033599,0.147806,0.033054,0.015181,-0.182728,0.011394,-0.134536,-0.015875,-0.002842,0.053193,0.056597,-0.086869,-0.166913,0.086302,0.117474,0.06053,-0.177599,-0.112927,0.054934,0.295016,-0.045056,0.143824,0.073729,-0.008606,-0.250442,0.008987,-0.043454,0.098332,-0.031254,-0.010424,-0.098985,0.127139,0.068969,0.105661,-0.035741,-0.254987,0.078299,-0.104413,0.011469,-0.008234,-0.014992,0.019785,-0.107191,-0.149166,0.179766,-0.026813,-0.22028,-0.191184,0.091215,-0.012177,0.207228,-0.371956,-0.031435,0.292326,0.04365,-0.491885,-0.047539,0.337294,0.066288,-0.255754,0.064531,0.171144,-0.018072,-0.108295,0.016983,-0.121796,0.120358,0.006908,-0.091976,0.046965,-0.010404,0.03824,-0.076808,0.037002,-0.031535,0.036848,-0.122077,-0.129709,0.143262,-0.054758,0.09427,0.022735,-0.082712,0.103797,-0.053363,-0.08538,0.033238,-0.030115,0.126445,-0.155332,0.125306,-0.108731,0.083897,0.029667,-0.034379,-0.105579,-0.027377,0.139187,-0.052116,0.023899,0.002234,0.021251,-0.071635,-0.044666,-0.042738,-0.002731,-0.035984,0.145878,-0.043857,0.033093,0.093661,-0.042564,-0.195947,-0.076057,-0.036219,0.14992,-0.014148,-0.00848,0.073125,-0.145364,0.088825,0.005229,0.081685,0.040819,0.0968,-0.069175,-0.024385,-0.023744,0.003216,0.013094,0.017339,0.011057,0.124486,-0.082418,-0.167874,0.120334,-0.046825,-0.045327,-0.150057,0.103479,0.174175,-0.041327,-0.035234,-0.313492,0.36497,-0.08728,0.012269,-0.315453,-0.05891,-0.122926,-0.187628,0.003689,-0.103348,0.152406,0.076053,0.066862,-0.000597,-0.08748,0.005919,0.277938,-0.104425,-0.024294,0.171271,0.094979,-0.244523,0.008949,-0.037117,0.033161,0.247778,-0.047925,0.157258,-0.016358,0.170067,0.214437,0.318333,-0.088254,0.005053,-0.339291,-0.058145,-0.350456,-0.252763,-0.017628,0.205406,-0.221759,0.258585,-0.078511,-0.017366,-0.252764,-0.175855,0.16709,0.109402,-0.006804,-0.149812,0.071028,0.017043,-0.062159,0.003426,0.358354,-0.01279,0.100548,0.024781,-0.01505,0.068688,-0.074044,0.067382,0.137536,0.06513,-0.206815,-0.202798,-0.140255,-0.035947,-0.028931,0.163517,0.022998,-0.015394,-0.076934,0.019229,0.059818,-0.084853,0.012321,0.048673,-0.007302,0.123846,-0.144963,-0.117093,-0.069296,-0.06749,0.14415,0.159724,0.473772,-0.068897,-0.035531,0.031828,-0.049332,0.02506,0.030273,-0.022,0.032551,-0.095581,0.153771,-0.165017,-0.070796,0.181135,-0.169944,0.157496,0.100415,-0.02579,0.101597,-0.19932,-0.0296,0.096271,0.02685,0.021035,-0.07071,-0.096688,-0.003924,-0.0751,-0.053928,0.118946,0.208566,0.180036,-0.029442,-0.183333,-0.231485,0.113523,0.359627,0.016426,0.083842,0.075367,-0.107356,-0.162084,-0.044742,0.049942,0.177165,-0.050828,-0.113218,0.002704,0.16512,-0.065536,-0.229203,0.033713,0.046065,0.053534,-0.173344,-0.046067,-0.013991,-0.006108,0.021008,-0.10952,0.129609,0.199221,0.01358,0.113093,0.023869,-0.169089,0.139396,-0.027548,0.188958,-0.40785,0.036037,-0.053323,-0.030726,0.037085,-0.113947,0.334828,-0.279128,-0.014437,-0.0649,-0.108009,0.090488,0.280037,-0.001866,0.091082,-0.301947,0.005568,-0.308242,-0.077653,0.142409,0.076401,0.168188,0.079735,-0.048779,0.090028,-0.013911,0.030927,-0.072551,0.088828,-0.058883,0.048888,-0.216044,-0.091604,-0.025781,-0.182623,0.159899,0.150759,0.04876,-0.02487,0.119784,-0.187802,0.054188,-0.031423,0.026656,-0.070997,0.015681,0.024202,-0.326526,-0.037748,0.180529,0.054334,-0.168937,-0.039278,-0.136373,-0.028399,0.272622,0.12748,0.054061,0.152791,0.062077,-0.149518,-0.232336,-0.265485,-0.134712,0.073931,0.081392,0.120831,0.220161,0.023876,0.049313,-0.112818,-0.080862,-0.083424,0.045567,0.057961,-0.134583,-0.215142,0.040094,-0.084867,-0.134543,0.161106,0.261502,-0.158162,-0.043954,-0.085689,0.240299,-0.137997,-0.062609,0.092723,0.018961,-0.197981,-0.070406,-0.036409,-0.040294,0.146721,-0.095648,0.094864,0.057753,0.008355,0.122457,-0.158151,0.018496,-0.068575,0.116026,-0.294035,-0.110302,0.089984,-0.0753,0.051804,-0.24946,0.183691,-0.114956,0.193675,0.062405,-0.11702,-0.046054,-0.066399,0.043021,0.03757,-0.066331,-0.010979,0.016438,-0.079604,-0.057644,0.021623,-0.016723,-0.06055,0.009135,0.030564,-0.158144,-0.051481,0.035011,-0.071245,0.057998,-0.163978,-0.104126,-0.044707,0.131254,0.016678,-0.197971,-0.128693,0.077178,0.2469,0.025175,-0.107315,-0.137155,-0.00245,0.012458,0.012764,0.024738,0.125857,-0.060623,-0.189854,0.003456,0.126555,-0.109273,0.006576,0.016236,0.066597,-0.217154,0.102503,-0.076547,0.062176,0.16871,-0.255263,0.001314,0.021414,-0.129752,-0.191316,-0.04676,0.13201,0.105162,0.034949,0.183574,0.027814,-0.149569,0.07357,-0.159366,0.153705,-0.064722,0.049272,-0.18024,-0.117219,0.010996,-0.08292,-0.081032,-0.114768,0.239824,0.114118,0.05675,-0.107513,0.045969,-0.060241,0.210944,-0.322363,-0.034823,0.111553,-0.031253,-0.377622,0.11546,0.054363,-0.019364,0.094476,0.173952,0.014024,-0.01166,-0.096297,-0.127649,0.266604,-0.205767,0.134283,-0.2309,-0.027754,0.035558,-0.109521,-0.025363,0.043774,-0.010965,0.089647,-0.203346,0.155092,-0.127325,-0.013467,0.062646,-0.152711,-0.009901,0.016152,0.205754,0.019929,-0.186577,-0.137706,-0.030824,-0.013642,0.096674,-0.081109,-0.093695,0.026554,0.130025,0.014009,0.030342,0.131658,-0.132888,-0.075659,0.013091,0.067798,-0.151265,0.057421,-0.031908,-0.072422,0.15393,0.026633,0.204993,-0.142309,-0.07772,0.031403,0.078637,-0.045901,-0.056209,0.054061,-0.156575,0.068189,-0.080423,0.141322,0.202468,-0.073863,0.009715,-0.08202,0.179938,0.007902,-0.063582,-0.051357,-0.022679,-0.042793,0.03058,-0.131611,0.040121,-0.026484,-0.0183,0.022791,0.278958,-0.04859,-0.146881,-0.070923,0.033723,0.016709,-0.024592,0.001306,0.059792,-0.058958,0.164188,-0.02922,0.06938,-0.041866,-0.006329,0.055219,0.061138,0.187354,0.089345,-0.016738,0.020426,0.042294,-0.009813,0.039206,-0.006421,-0.013266,-0.014613,0.083304,-0.064056,-0.048495,0.21021,0.211374,0.094136,-0.240051,0.037669,0.338706,-0.070914,0.04303,-0.044098,-0.014197,-0.108341,-0.168486,0.078672,0.088788,-0.027651,0.382537,0.092478,-0.129009,0.270766,0.011435,0.020417,0.04346,0.062176,-0.097767,0.029004,0.13741,-0.232686,-0.119184,-0.384288,0.03176,-0.015044,-0.074456,0.112768,-0.090314,-0.037885,-0.089654,-0.036823,0.078965,-0.015071,-0.011231,-0.146239,-0.165996,-0.223081,0.12571,-0.041297,0.057537,0.185526,0.018156,0.058542,-0.053308,-0.125815,0.021096,-0.105142,0.156651,0.014665,0.015969,0.123023,-0.033974,0.162645,-0.011818,-0.221639,0.19812,0.076241,0.070267,0.000922,-0.355114,-0.112357,0.046336,-0.073752,0.005009,-0.004407,0.000549,-0.26366,-0.150781,0.002487,0.220247,-0.171934,0.158515,-0.062604,-0.031905,-0.084521,0.186394,0.205079,0.096994,-0.063473,0.25225,-0.017132,-0.075819,0.007548,-0.017162,-0.168573,0.207282,-0.171324,0.097778,0.056679,-0.078805,-0.188838,-0.329758,-0.207063,-0.002371,-0.072781,0.055998,-0.038351,0.014847,-0.002722,0.13729,-0.216237,0.007089,-0.073389,0.007228,0.072241,0.230479,-0.308986,-0.049018,0.052229,0.018506,-0.39169,0.042711,-0.319196,-0.068212,-0.047534,0.234645,-0.136415,0.082334,0.064109,-0.083298,-0.048305,-0.159389,-0.255853,0.02942,0.107706,-0.124104,-0.416459,-0.070892,-0.010661,0.014105,0.177505,0.164795,-0.132985,-0.060226,0.104295,0.104216,0.115904,-0.278455,0.060978,-0.333801,-0.170643,0.028933,-0.146515,0.030117,0.018731,-0.051302,-0.03676,-0.191097,0.040828,0.068689,-0.028049,-0.079164,-0.15984,0.087941,-0.218589,0.107444,-0.037915,-0.199052,-0.00909,-0.15994,0.093374,0.119232,-0.1206,-0.020686,-0.400623,0.114069,-0.028178,-0.053931,0.003976,0.030904,-0.043043,-0.151863,-0.111441,-0.052538,-0.065547,0.081885,-0.073742,0.138173,0.050166,-0.153737,0.089528,-0.20309,-0.161427,-0.047271,0.1959,-0.173675,-0.14227,0.042358,-0.082399,-0.190907,0.120771,0.21585,0.133259,0.071051,-0.218401,-0.211683,0.216746,-0.223861,-0.032792,0.090329,0.128308,0.014004,-0.059653,-0.037505,0.018978,0.030896,-0.05224,0.048671,0.056787,-0.128305,-0.18203,0.070681,-0.078509,0.004945,-0.0057,-0.106733,0.032026,-0.000131,-0.055034,0.06359,0.053821,0.165261,0.095774,0.051093,-0.213723,0.141011,0.132373,-0.264599,0.020178,-0.040542,-0.080761,0.186365,-0.11445,-0.035366,0.007177,0.021926,0.117792,-0.085059,0.291207,-0.157816,-0.429393,0.014057,-0.20191,-0.000397,0.028681,-0.068386,0.101949,-0.24003,-0.094522,0.191721,0.111796,0.055424,0.030924,0.045902,-0.225235,-0.060345,-0.078173,0.182651,0.040117,-0.077814,-0.009212,-0.001498,-0.050281,-0.08034,0.171236,-0.155348,0.069728,0.025328,0.143399,-0.179047,-0.164187,-0.056987,0.005479,0.058068,-0.145298,-0.017631,-0.085538,0.102463,0.006839,-0.151263,0.077734,0.0742,0.055366,0.075183,0.252667,-0.069404,-0.290941,-0.159813,-0.009839,0.103963,-0.069138,0.074723,-0.01988,-0.189206,-0.008046,0.170301,0.013739,-0.010272,0.120672,-0.173781,-0.05241,0.03486,0.017126,0.025877,0.034119,0.130721,-0.178423,-0.014915,0.012726,0.146817,-0.103886,0.011496,-0.066998,0.08043,-0.020462,-0.022382,-0.154685,0.01353,-0.050995,-0.053961,-0.037183,-0.013939,0.052261,-0.162611,0.09299,-0.123885,0.11508,0.138502,-0.004248,0.051305,-0.102626,0.013552,-0.071735,0.063375,0.058129,0.022248,-0.103688,-0.151926,-0.191544,0.024809,0.012029,0.088091,0.109769,0.118878,-0.024225,-0.011359,-0.081941,-0.137614,-0.145465,-0.116973,0.096819,-0.010023,0.119332,-0.365195,-0.042708,0.10823,0.063572,0.057829,0.139508,-0.05477,0.011749,-0.066095,0.03607,-2.9e-05,-0.062971,-0.016987,-0.169111,0.132464,-0.303309,0.102477,0.025749,-0.02458,0.146767,0.168397,0.004612,0.002327,-0.191675,-0.001366,-0.120185,0.033626,0.074586,0.124671,-0.212419,0.059432,0.037102,0.071208,0.006289,-0.094422,-0.014116,0.039976,-0.030431,0.114031,-0.079444,-0.159963,0.01046,-0.034342,0.095895,-0.09076,-0.038872,0.083293,0.017035,-0.004904,-0.168655,-0.028671,0.134449,0.013509,0.069893,-0.011941,-0.123185,-0.042212,-0.077129,-0.003607,-0.065796,-0.025853,-0.15392,-0.054895,0.082844,0.131669,0.043603,-0.056951,0.005653,-0.024035,0.018591,-0.127103,0.176155,-0.082073,-0.04237,-0.050188,-0.068821,-0.000349,-0.00336,0.132862,0.034311,-0.020574,-0.003571,0.078726,0.380359,-0.111066,-0.000253,0.148855,0.015026,0.03541,-0.041954,0.01811,0.231611,-0.054166,0.095609,-0.051789,-0.02145,-0.072,-0.264897,-0.031979,-0.128403,-0.026257,0.030828,0.022668,0.005912,0.007862,-0.02672,0.096778,-0.070397,0.24205,-0.022865,-0.020481,0.033308,0.058098,-0.02981,-0.029656,-0.070559,-0.050198,-0.027456,-0.092085,0.130795,0.009133,-0.04857,-0.054089,0.132564,-0.264798,-0.013368,0.023446,-0.173945,-0.072253,-0.073724,0.009745,-0.204339,-0.01959,-0.088951,-0.053752,-8.2e-05,0.2315,0.058374,0.056216,-0.157448,-0.030511,0.076665,-0.21393,-0.098552,-0.066361,0.006137,0.188359,-0.225599,0.093994,-0.146072,-0.030526,-0.066253,0.075361,-0.059684,-0.036979,-0.067369,0.19244,0.042949,-0.148211,-0.047451,-0.011956,-0.009603,-0.14621,-0.032689,-0.223315,0.00347,-0.011655,0.08178,-0.022028,0.000347,-0.015782,0.017965,-0.091625,-0.056484,-0.057763,0.021914,0.057123,0.099326,-0.373274,-0.246431,-0.057744,-0.010507,-0.126321,0.288155,-0.056852,0.031518,0.127856,-0.14361,-0.062552,-0.45853,-0.04937,-0.268164,0.032965,0.027331,-0.044105,-0.047193,-0.095252,0.034162,0.07737,-0.151841,-0.021896,-0.072072,-0.145823,0.114828,0.006331,-0.062506,0.276144,0.062248,0.181836,-0.107085,-0.075503,-0.158633,-0.004153,0.202245,0.070009,0.059043,-0.001311,-0.19573,0.189138,-0.238461,-0.021158,-0.01591,-0.089377,-0.069103,0.07433,-0.020344,-0.015911,0.078655,-0.037379,-0.065732,-0.001706,0.033844,-0.092397,-0.245136,-0.00079,-0.044556,0.019973,0.082457,0.07205,-0.047316,0.037712,0.01884,-0.217506,-0.043617,0.138716,-0.033817,-0.31271,0.181036,-0.286998,0.177106,-0.020686,-0.053651,-0.058872,0.059959,-0.16437,0.00099,-0.117986,0.191253,0.228108,-0.080036,0.035034,-0.185358,-0.115235,-0.262922,-0.07609,0.007539,-0.032639,0.203845,0.014414,-0.287288,-0.082438,0.258702,0.006807,-0.033637,-0.032761,-0.134171,-0.006672,0.193859,-0.075319,0.082309,-0.044034,0.117347,-0.150795,0.138805,-0.143609,-0.043792,0.183512,-0.19047,0.12573,-0.053433,0.038027,-0.037021,-0.338407,-0.090182,-0.049188,0.030406,-0.052022,0.078927,-0.027444,-0.166428,0.016648,0.102198,-0.1228,0.145916,-0.177985,-0.164825,0.213922,-0.068351,0.222858,-0.196674,-0.119357,-0.112706,0.230839,0.114218,-0.020894,-0.014033,-0.1382,0.087964,-0.061881,-0.090064,0.143918,-0.244812,-0.1359,-0.148982,-0.203087,-0.13532,-0.30876,0.170944,0.161479,0.076115,-0.168323,-0.06726,0.1827,0.081145,-0.147201,-0.035838,-0.040149,0.092073,-0.063934,-0.004457,-0.129525,0.000553,-0.045534,0.187372,0.096282,-0.032225,-0.300991,0.09584,-0.093792,0.058116,0.137659,-0.128604,-0.120111,-0.202532,-0.121699,-0.031772,-0.127635,0.047971,-0.130174,0.232962,-0.190644,0.053178,0.228969,-0.177468,-0.069018,0.046147,0.036649,0.046239,-0.374864,-0.009028,0.088857,-0.344577,0.110762,0.09592,0.054881,-0.035168,-0.052046,0.151728,-0.135167,0.141813,0.160176,0.060037,-0.235603,-0.100354,-0.113333,0.196337,0.054762,-0.405227,0.06343,-0.21918,-0.311789,0.204463,-0.093308,0.159957,-0.016808,0.12618,0.055839,-0.294558,-0.029972,0.051398,-0.154956,0.018787,-0.164396,0.333764,0.144347,0.051573,0.017508,-0.192695,0.103394,-0.111571,0.234161,-0.048867,-0.184985,-0.150828,-0.109289,0.116612,-0.125619,-0.027384,0.11972,-0.085105,-0.191542,-0.072491,0.197866,-0.007882,0.065206,-0.09666,-0.114071,-0.028542,0.192893,-0.029109,-0.165637,0.240801,0.042708,0.176856,-0.239764,0.115637,0.142475,-0.309245,-0.240458,0.162738,0.08391,0.00121,-0.042218,0.027823,-0.169142,0.000117,-0.045714,-0.099817,0.07034,-0.04743,-0.293092,0.054014,-0.022915,-0.111678,0.199499,0.063858,0.025698,-0.177535,-0.026254,0.048456,-0.0667,0.230999,-0.051043,-0.075636,-0.107725,-0.026158,0.158379,-0.280232,0.007497,-0.001038,0.031049,0.080652,-0.397304,0.052981,0.073951,0.017806,0.051368,-0.063226,-0.087713,0.012344,-0.352998,0.160727,-0.014238,-0.139552,0.053066,0.004833,0.054536,-0.138998,0.005329,-0.133112,-0.217357,0.114449,0.038598,-0.137313,0.065892,0.023687,0.149437,-0.100401,-0.119578,-0.236471,0.124431,0.283787,-0.272221,0.085047,-0.057843,0.070695,-0.124322,-0.010396,0.219427,-0.18721,-0.054702,-0.058014,-0.017539,0.036598,-0.006488,-0.247138,-0.00083,-0.014646,0.211871,-0.064575,-0.161911,0.076644,0.152048,-0.090391,-0.094848,0.091624,0.027039,-0.278456,0.065249,-0.090588,0.127692,0.211125,-0.006323,-0.086067,-0.11315,-0.208391,0.032507,0.077645,0.023506,0.00647,0.075439,-0.20696,0.08704,-0.062982,-0.069099,-0.010515,-0.126087,0.009565,0.022287,0.012426,-0.00301,-0.135261,0.142302,-0.159928,-0.021108,0.004985,0.109579,0.108099,-0.005425,0.154138,-0.028991,-0.099003,-0.041015,-0.140871,0.000556,-0.041034,-0.192206,0.094971,0.040168,0.013925,-0.025191,-0.007106,-0.030818,0.023112,-0.028176,0.012474,0.050909,0.160106,-0.119108,0.13779,0.007732,-0.040897,-0.267979,-0.193989,0.139553,-0.032682,-0.026677,0.253953,-0.002078,-0.058917,-0.015839,-0.095756,-0.260483,-0.163463,-0.01285,0.005579,-0.016902,-0.036126,-0.242737,0.069971,-0.018014,-0.032734,0.002098,0.283141,-0.181018,0.002474,-0.180582,0.030462,0.102654,0.056094,0.010543,0.20631,0.018059,0.145358,-0.05757,-0.037964,0.03991,0.074521,0.013783,0.030155,0.069991,-0.389683,-0.412846,0.061253,-0.307383,0.032409,-0.05792,-0.031736,-0.002944,-0.28335,-0.055616,-0.235824,0.02749,0.023237,0.227588,0.001421,-0.310656,-0.078276,-0.282138,0.01004,0.014271,0.013556,0.085454,-0.131869,-0.16066,0.009348,0.116953,-0.158632,0.298629,-0.028868,0.028165,0.136062,-0.127249,-0.173384,-0.110735,-0.031418,-0.004344,-0.047698,0.012986,-0.147328,-0.046034,0.276504,0.208608,-0.081696,0.160995,-7.5e-05,0.060255,0.030762,-0.359138,0.065481,-0.057758,-0.013186,0.054825,0.300564,0.028519,0.022523,-0.017704,-0.109202,0.108125,0.060566,0.010368,0.312859,-0.152087,-0.200937,-0.072804,-0.020742,-0.004745,-0.177782,0.075682,-0.041641,-0.0491,0.219769,-0.003144,0.025872,0.037257,0.003512,0.018483,0.090584,0.041173,0.068646,-0.055224,0.068463,-0.029357,0.107281,0.27612,-0.041686,0.016379,-0.023495,-0.090541,0.099739,0.031688,-0.130536,-0.075658,-0.042641,-0.082533,-0.035464,0.090304,-0.006993,0.024348,-0.062542,-0.031418,-0.095004,0.081842,-0.02505,0.346835,-0.039958,0.061059,0.091102,0.022164,0.082244,-0.080468,-0.066504,0.179909,-0.02819,0.236421,0.024256,-0.088652,-0.036238,-0.369314,0.267206,-0.092418,0.072158,0.162739,0.180673,-0.14406,0.019259,0.122231,0.014519,-0.046811,-0.142241,-0.052792,0.194349,0.12143,-0.075219,0.294246,0.003552,-0.199936,0.055308,0.089969,0.120706,-0.09475,0.000719,-0.024201,-0.022733,0.377643,0.080856,0.016655,-0.03323,0.056232,-0.299912,-0.031782,0.135596,-0.247016,-0.01464,0.155938,0.004204,0.127444,-0.018457,-0.142794,-0.008575,-0.051245,-0.080867,-0.111879,0.218561,0.067473,0.04701,0.161292,-0.237795,-0.028766,-0.280354,-0.025987,-0.096522,0.031543,0.038989,0.058548,-0.08224,-0.102947,-0.130601,0.147047,0.244434,0.072866,-0.069141,0.126336,-0.229436,0.026356,0.007552,0.11677,-0.111502,0.153032,-0.153626,-0.063666,0.089576,-0.01533,0.126973,-0.099615,0.012682,0.059096,-0.206692,-0.047163,0.015171,0.062888,0.025945,0.030796,-0.074843,-0.0148,-0.100571,0.184684,0.041461,-0.039288,-0.05168,0.079569,-0.140495,-0.063647,0.067811,-0.118384,0.022938,-0.079557,-0.00262,-0.009435,-0.002551,0.025304,-0.010956,-0.178639,-0.086465,0.030404,0.03034,-0.264963,0.133872,0.06269,-0.086263,-0.062537,0.083768,0.164418,-0.111106,-0.004188,-0.059912,0.108423,-0.194112,0.17115,-0.030297,0.114336,0.171522,-0.28062,-0.036906,-0.051513,-0.01585,0.059749,-0.166537,-0.135863,0.118251,-0.118878,0.081378,-0.027366,0.156431,-0.028983,0.103707,-0.025308,0.096228,-0.206813,-0.189883,-0.04676,-0.196344,0.015306,0.046683,0.143872,0.090849,0.132639,-0.164725,-0.133857,0.060324,-0.097302,-0.096164,0.129123,0.02654,-0.120184,-0.074321,-0.160571,0.023824,0.096922,0.109507,0.030864,-0.145387,-0.034141,0.059672,0.042344,0.181932,-0.016878,-0.20562,0.116256,-0.181009,-0.108839,0.053241,-0.101646,-0.030227,-0.006587,-0.028129,0.056521,-0.120611,0.065956,-0.020667,0.018948,-0.133851,0.11905,0.124999,0.008722,-0.079135,0.101898,0.004748,-0.123729,0.093655,0.009325,0.080042,-0.06741,0.139948,-0.030785,0.253349,-0.153315,-0.115105,0.027925,-0.007981,-0.215222,-0.054912,0.048129,0.00359,0.142634,-0.157357,0.067527,0.156433,0.062222,-0.176464,0.22448,-0.108322,0.038633,-0.016915,-0.059205,0.02108,-0.102203,0.178108,0.040069,-0.133592,-0.071316,-0.000973,0.016828,-0.012128,-0.038903,-0.095102,0.111409,-0.148422,0.057579,-0.191016,0.134954,-0.027801,0.058622,-0.130184,0.058186,-0.077757,0.176836,-0.073046,-0.084908,0.020024,0.206109,0.025678,-0.303828,0.131512,0.013765,-0.072605,-0.150905,0.062059,0.109901,-0.219884,0.0349,0.07686,0.030833,0.136822,-0.167747,-0.15716,0.170028,-0.28851,0.073336,0.150086,0.030515,0.167338,-0.10101,-0.068233,-0.087743,-0.156184,0.056785,-0.026446,0.084815,-0.139746,-0.026137,0.050585,0.071863,-0.057533,-0.045987,-0.006974,0.07167,0.022242,0.093491,-0.009107,0.030483,-0.232054,-0.011976,-0.184059,-0.009396,0.010493,0.119371,-0.256593,-0.044682,0.01263,0.018997,-0.113844,0.081155,-0.039963,0.09065,-0.029425,0.116404,-0.260692,0.057704,0.233013,0.015441,-0.016531,0.026554,0.014888,0.037324,-0.027283,-0.149912,-0.131732,-0.165371,0.011051,-0.051399,0.268186,-0.249949,-0.008746,-0.179141,0.025849,-0.023702,0.088597,-0.106414,-0.168479,-0.061057,0.175927,0.003594,-0.095241,0.140226,-0.015534,-0.051282,0.012576,-0.061093,-0.10258,0.002509,0.093825,-0.045397,-0.003226,-0.10424,0.031514,-0.163846,0.114453,-0.085059,-0.031974,0.015963,0.146789,0.07256,0.032827,-0.336722,-0.034824,-0.1332,-0.037657,0.078707,-0.590718,0.035251,-0.162414,-0.134112,-0.054892,0.193344,-0.008477,0.025123,0.235924,0.211739,-0.600782,-0.037509,0.020689,-0.079298,0.05704,-0.17361,-0.063382,-0.02916,-0.02947,0.163724,0.01603,0.021226,-0.263995,0.0717,0.439565,-0.05002,-0.025898,-0.366532,-0.041995,-0.001156,-0.214471,-0.010265,-0.103588,-0.05937,0.083736,0.067595,-0.030333,-6.7e-05,0.383312,-0.076656,-0.231913,-0.026458,-0.421359,-0.072192,0.151865,0.076501,0.017858,0.070802,0.109532,0.120564,-0.033685,0.025939,0.007833,-0.046625,0.018852,0.031335,0.01965,0.226529,-0.224543,0.06001,-0.273656,-0.024473,0.185914,0.190184,0.022964,0.085111,-0.02136,-0.005533,-0.118269,-0.044858,0.015114,0.04478,0.008977,-0.233381,-0.06928,-0.266874,0.01303,-0.088401,0.05917,0.121332,0.033745,0.026922,0.274636,-0.045904,0.006633,-0.127232,0.043807,-0.110047,0.037933,-0.208642,0.054198,-0.093766,0.162709,0.240612,-0.016769,-0.04069,-0.035017,0.003184,0.10215,0.067108,-0.085039,-0.007313,0.085934,-0.17683,-0.163855,0.023166,-0.039496,0.157207,0.065639,-0.183741,-0.07728,0.010705,-0.012573,-0.077744,0.103537,0.02981,0.006554,-0.02988,-0.067675,-0.256017,0.212359,-0.025227,-0.029911,-0.20963,0.222794,0.105114,0.033638,0.069175,-0.018528,-0.470887,0.131357,-0.037513,-0.078725,0.029261,0.014808,-0.021283,0.044825,-0.306542,-0.054784,-0.08504,-0.265612,-0.065635,-0.015117,-0.087269,0.063836,0.176193,0.072711,-0.142315,0.07245,-0.250065,-0.074807,-0.130654,0.002386,0.232776,0.081642,-0.06193,0.021193,-0.252021,0.207446,-0.024736,0.125445,-0.027038,0.081727,0.068074,-0.038475,-0.038304,0.0171,-0.142542,-0.061438,0.108702,-0.268511,0.010789,-0.022546,0.014462,-0.176791,-0.181393,0.009612,0.116572,0.006439,-0.274738,-0.127923,0.151498,0.064701,-0.064977,-0.196881,-0.292614,0.004663,-0.137854,-0.298112,0.069512,0.190261,0.049431,-0.178741,-0.072921,0.102646,-0.062491,0.034563,-0.188071,-0.175449,0.282741,-0.041938,0.012963,0.068445,-0.101553,-0.140467,9.6e-05,0.069719,-0.02011,0.051694,-0.078396,-0.109709,0.004291,-0.01363,-0.033674,0.14986,-0.117423,0.090633,-0.106543,-0.112657,0.05509,0.051777,-0.010893,-0.045438,-0.024829,0.03086,0.126156,0.004233,-0.048475,-0.255557,-0.063061,0.118809,-0.053165,-0.121226,0.212674,-0.137764,0.187839,0.032529,-0.313602,-0.134216,0.213756,-0.049732,-0.081172,0.071501,-0.03539,0.014146,0.11634,0.054449,-0.154346,-0.0267,-0.014609,-0.126966,-0.129267,0.084542,0.086173,0.119722,0.054413,-0.053747,-0.081105,0.056683,0.04155,0.100923,0.133615,-0.221807,0.042927,0.038554,-0.21146,0.09855,-0.17775,0.007553,0.136379,-0.258273,-0.183801,0.14756,-0.12124,0.131399,0.125121,-0.059125,0.050389,0.091697,0.075034,-0.145012,-0.14116,-0.094263,0.219696,0.12339,0.01025,0.048313,-0.112149,0.090648,-0.00922,-0.121271,-0.040868,-0.18853,-0.039035,0.246616,-0.078586,0.115287,-0.215869,-0.030106,0.056887,-0.001793,-0.205688,0.184491,0.057003,-0.183225,0.107807,-0.057851,0.11277,0.003074,-0.106527,0.059115,0.068689,-0.160241,0.026025,-0.063535,0.157303,0.087021,-0.211536,-0.016276,0.118062,-0.069915,-0.073954,-0.128931,0.10121,0.02898,-0.108764,0.34713,-0.221634,-0.039141,0.004791,-0.030508,-0.178055,0.107655,-0.066239,-0.069135,0.165491,-0.092234,-0.026286,-0.00079,-0.164351,0.088817,0.099912,0.046765,-0.045236,-0.003521,-0.069197,0.330941,-0.361058,-0.451675,0.230333,0.1386,-0.049594,-0.221577,0.092524,-0.10645,-0.08653,0.107318,0.089583,0.018054,-0.07355,0.116602,-0.091091,0.003972,0.048701,0.027691,-0.097247,-0.182843,-0.192143,0.119852,0.047804,0.119218,0.089645,0.035592,-0.32016,0.211197,-0.17761,0.043569,-0.060824,0.141438,-0.094793,-0.038837,-0.037671,0.031635,-0.006253,0.079119,0.002646,0.117245,-0.03474,-0.024625,-0.136563,0.013049,-0.002654,0.172068,-0.150832,-0.051102,0.008112,0.020692,0.036286,0.025799,-0.190979,0.025963,-0.061437,0.200683,-0.08236,-0.001443,0.106027,-0.019394,0.232539,0.176771,0.012969,-0.058225,0.028362,0.31532,-0.016755,-0.232411,-0.025193,0.00791,0.004675,0.285492,0.109469,0.16933,-0.04212,0.012309,-0.004203,0.027979,0.020406,0.028521,-0.144544,0.054375,-0.11965,-0.116851,0.030452,0.087604,-0.341568,-0.085083,0.065813,-0.026589,0.241878,0.052082,-0.018589,0.135796,0.006359,-0.051261,-0.121606,-0.017914,0.086582,0.025002,-0.082868,-0.115043,0.006582,0.104038,-0.049083,0.108043,0.017328,0.13303,0.141665,-0.039503,0.129024,-0.003275,-0.226501,-0.029447,-0.021132,-0.120803,0.129319,0.154165,0.073881,-0.021845,0.074888,-0.231728,0.160579,-0.280944,-0.051725,-0.128709,0.179669,-0.045248,0.183037,-0.024986,0.006546,-0.104121,0.194924,-0.199428,-0.028892,0.204554,-0.004925,0.03109,0.037936,-0.044634,-0.118511,0.018686,0.014051,0.172161,-0.009774,0.001501,0.004728,0.129472,-0.03795,-0.019001,-0.122939,0.047219,-0.056752,0.034732,0.026086,-0.170779,-0.025611,0.063447,-0.079967,0.027243,0.003119,-0.095607,0.001556,-0.041456,-0.009427,-0.135538,0.097588,0.002327,0.275829,0.00702,0.196834,-0.322934,-0.06078,-0.088219,0.017119,0.016283,-0.183928,0.143912,0.129851,0.049581,-0.064222,-0.042845,0.018845,0.056906,0.008114,-0.117605,-0.105575,0.231523,0.196146,-0.011278,0.46137,-0.502246,0.037264,-0.013309,0.003637,-0.043584,0.206222,0.034657,-0.007654,0.022028,0.162727,-0.011238,-0.29417,0.055166,0.016717,0.203182,-0.068081,0.027382,-0.087664,-0.057887,0.032812,-0.105867,0.180895,0.014868,-0.110472,0.16161,-0.00411,0.09846,0.16943,-0.139956,0.152219,0.097674,0.085454,0.197014,-0.047392,-0.016757,0.130212,0.052567,-0.119416,0.068621,0.189261,-0.008971,-0.291456,-0.269759,-0.071432,-0.365485,0.154574,0.055068,0.168249,-0.043731,-0.027835,0.013722,-0.08862,0.218866,-0.0946,0.07914,0.000358,0.114156,0.004675,-0.034756,-0.247508,-0.149151,0.235376,0.230422,0.01576,0.05067,0.199602,-0.385787,-0.01239,0.052004,0.004849,0.012451,-0.116711,-0.086301,-0.076598,-0.075289,0.032481,0.126869,-0.031946,-0.050876,0.215073,0.019356,-0.179995,0.017968,-0.075525,-0.023368,0.102626,-0.024012,0.120621,-0.03253,0.053904,0.054757,-0.187369,-0.004597,0.026726,-0.034292,0.168726,-0.293055,0.040271,0.045108,-0.081258,0.062246,0.072787,-0.199039,-0.016472,-0.17424,-0.016664,0.045168,0.16154,-0.060404,0.143411,-0.056847,0.017467,-0.06129,0.047158,-0.149361,0.145431,0.036804,0.067306,0.028407,-0.089084,0.15629,-0.101203,-0.051803,-0.005598,-0.134795,-0.050859,-0.04973,0.172288,-0.050504,0.062155,-0.029092,0.055469,-0.196284,0.035055,-0.151617,-0.056127,0.233887,-0.017492,0.056063,0.055272,0.0301,0.070743,-0.139362,-0.03075,0.078187,-0.071667,0.091255,-0.056727,0.018621,0.120578,-0.065029,-0.048118,-0.035934,-0.062809,0.26498,-0.118415,0.034289,0.013289,0.0032,-0.070962,0.197864,-0.124694,-0.067496,-0.07818,-0.018283,0.085391,-0.04995,0.023021,0.019976,-0.221728,0.075882,0.125804,0.055862,-0.153078,0.165568,0.030637,0.088189,-0.132222,0.028819,-0.345991,-0.087955,0.006083,0.256692,0.110919,-0.029905,-0.174973,-0.028654,-0.105338,0.071216,-0.157316,0.02542,0.009432,0.007439,0.058273,0.096562,0.048897,-0.09657,-0.124642,-0.063674,-0.059588,-0.116702,0.324905,-0.072236,-0.229383,-0.025067,-0.083893,0.019963,0.148182,-0.009598,0.007215,-0.005601,0.007633,0.131241,0.190143,-0.046573,-0.055935,-0.161657,-0.130942,-0.075768,0.128195,-0.094473,-0.022904,0.025869,0.129284,-0.043876,0.197266,-0.229697,-0.063319,0.195457,0.025618,0.065201,0.049848,-0.249994,-0.200061,0.061392,0.053864,0.136238,-0.114098,-0.031255,-0.097218,0.085883,0.065048,-0.1421,0.010866,-0.054015,-0.079297,-0.033656,0.06118,-0.043167,-0.138528,0.036758,0.016958,0.071041,0.275755,-0.025923,-0.125308,-0.043514,-0.019571,0.08181,0.016148,-0.090752,0.008513,0.017202,-0.19255,0.013532,0.089143,-0.009767,0.064667,-0.011522,0.200749,-0.192571,-0.277413,0.123326,0.095483,-0.050196,-0.00246,-0.109817,0.071732,0.065096,-0.091668,-0.135668,0.154464,0.020244,0.04031,0.103807,-0.215985,0.052979,-0.031022,0.126223,-0.249274,0.112202,-0.361794,-0.144142,0.274988,-0.289588,0.136634,-0.010911,-0.003696,0.079762,0.100103,-0.075812,-0.068659,0.118044,0.004186,-0.211066,0.017699,0.117247,-0.271364,0.06188,0.011121,-0.050834,0.185905,-0.051935,-0.208425,-0.122887,-0.147356,0.108657,0.135221,0.174918,-0.016512,0.018244,-0.161374,-0.293327,0.139737,-0.241052,0.260723,-0.035849,-0.014817,0.023785,-0.072578,0.005546,0.094557,-0.007514,0.009089,0.286488,-0.089986,-0.119908,0.183861,0.006105,0.043784,0.189721,-0.00488,0.135647,0.000395,0.163108,